%YAML:1.0
---
opencv_ml_svm:
   format: 3
   svmType: C_SVC
   kernel:
      type: RBF
      gamma: 0.50624999999999998
   C: 12.5
   term_criteria: { epsilon:1.1920928955078125e-07, iterations:1000 }
   var_count: 324
   class_count: 13
   class_labels: !!opencv-matrix
      rows: 13
      cols: 1
      dt: i
      data: [ 0, 1, 2, 3, 4, 5, 6, 7, 8, 9, 10, 11, 12 ]
   sv_total: 658
   support_vectors:
      - [ 0.353998005, 0.37284863, 0.376178443, 0.376178443, 0.126257569,
          0.0917555764, 0.376178443, 0.376178443, 0.376178443,
          0.488402545, 0.231946006, 0.320466995, 0.0515386835,
          0.00201582606, 0.00769563997, 0.312026799, 0.49994573,
          0.49994573, 0.425543785, 0.425543785, 0.425543785, 0.245453984,
          0.0318218917, 0.064657487, 0.157704666, 0.425543785,
          0.425543785, 0.172548786, 0.216993347, 0.396335483,
          0.396335483, 0.396335483, 0.333733559, 0.396335483,
          0.396335483, 0.149647161, 0.0191254728, 0.0154745691,
          0.411234051, 0.42571789, 0.42571789, 0.323078573, 0.42571789,
          0.409489304, 0.101292804, 0.0574615039, 0.12504299,
          0.349385917, 0.437362522, 0.437362522, 0.437362522,
          0.437362522, 0.245625496, 0.17072542, 0.197596252, 0.353487313,
          0.339243054, 0.353487313, 0.353487313, 0.353487313,
          0.353487313, 0.353487313, 0.304333121, 0.0974239036,
          0.0866490826, 0.168003529, 0.461304009, 0.461304009,
          0.0981596336, 0.298875749, 0.461304009, 0.461304009,
          0.0487382933, 0.0912406221, 0.236333221, 0.50717932,
          0.50717932, 0.182211369, 0.0701793507, 0.356398523,
          0.498771787, 0.197596252, 0.353487313, 0.339243054,
          0.353487313, 0.353487313, 0.353487313, 0.353487313,
          0.353487313, 0.304333121, 0.0974239036, 0.0866490826,
          0.168003529, 0.461304009, 0.461304009, 0.0981596336,
          0.298875749, 0.461304009, 0.461304009, 0.0487382933,
          0.0912406221, 0.236333221, 0.50717932, 0.50717932, 0.182211369,
          0.0701793507, 0.356398523, 0.498771787, 0.424040556,
          0.424040556, 0.285119593, 0.191823125, 0.157107472,
          0.302284867, 0.424040556, 0.424040556, 0.205850109,
          0.335018456, 0.335018456, 0.335018456, 0.314250946,
          0.335018456, 0.335018456, 0.335018456, 0.335018456,
          0.335018456, 0.233967349, 0.147868067, 0.4150922, 0.4150922,
          0.389491618, 0.0785610452, 0.268637329, 0.4150922, 0.4150922,
          0.227540806, 0.4241018, 0.424948514, 0.224598825, 0.268142939,
          0.293310136, 0.424948514, 0.424948514, 0.118313171,
          0.389833242, 0.41594705, 0.41594705, 0.0344292782, 0.180466801,
          0.26078546, 0.41594705, 0.41594705, 0.22375074, 0.360180259,
          0.36774677, 0.36774677, 0.257135689, 0.308141559, 0.342813283,
          0.36774677, 0.36774677, 0.21692051, 0.425543785, 0.425543785,
          0.425543785, 0.245453984, 0.0318218917, 0.064657487,
          0.157704666, 0.425543785, 0.425543785, 0.22401002, 0.190810934,
          0.451974869, 0.428195536, 0.0457600318, 0.121822849,
          0.451974869, 0.451974869, 0.309460878, 0.414566249, 0.20306477,
          0.413828969, 0.310439825, 0.00444430625, 0.0538779013,
          0.414566249, 0.410460621, 0.414566249, 0.0574615039,
          0.12504299, 0.349385917, 0.437362522, 0.437362522, 0.437362522,
          0.437362522, 0.245625496, 0.17072542, 0.0792065933,
          0.261459917, 0.422925323, 0.422925323, 0.366067052,
          0.187875584, 0.422925323, 0.422925323, 0.190721512,
          0.0881911442, 0.44692874, 0.44692874, 0.301932633, 0.123574287,
          0.0672778934, 0.44692874, 0.44692874, 0.278956234,
          0.0487382933, 0.0912406221, 0.236333221, 0.50717932,
          0.50717932, 0.182211369, 0.0701793507, 0.356398523,
          0.498771787, 0.0558090545, 0.402724206, 0.409739047,
          0.452102244, 0.452102244, 0.136730492, 0.0989993811,
          0.376673162, 0.288313955, 0.00899367221, 0.167774886,
          0.281616092, 0.370954394, 0.318915099, 0.110788733,
          0.327285558, 0.514113069, 0.514113069, 0.0487382933,
          0.0912406221, 0.236333221, 0.50717932, 0.50717932, 0.182211369,
          0.0701793507, 0.356398523, 0.498771787, 0.0558090545,
          0.402724206, 0.409739047, 0.452102244, 0.452102244,
          0.136730492, 0.0989993811, 0.376673162, 0.288313955,
          0.00899367221, 0.167774886, 0.281616092, 0.370954394,
          0.318915099, 0.110788733, 0.327285558, 0.514113069,
          0.514113069, 0.233967349, 0.147868067, 0.4150922, 0.4150922,
          0.389491618, 0.0785610452, 0.268637329, 0.4150922, 0.4150922,
          0.105171055, 0.0911934301, 0.28044346, 0.466480404,
          0.466480404, 0.0720232129, 0.147348762, 0.466480404,
          0.466480404, 0.0532376803, 0.0552424863, 0.303672791,
          0.455844223, 0.455844223, 0.262307733, 0.439955056,
          0.455844223, 0.107684217, 0.360180259, 0.36774677, 0.36774677,
          0.257135689, 0.308141559, 0.342813283, 0.36774677, 0.36774677,
          0.21692051, 0.121547565, 0.376217514, 0.427849144, 0.425138503,
          0.11015705, 0.225991875, 0.427849144, 0.427849144, 0.215170756,
          0.237592369, 0.294734448, 0.367612034, 0.367612034,
          0.367612034, 0.205370739, 0.367612034, 0.367612034,
          0.367612034 ]
      - [ 0.399603516, 0.399603516, 0.399603516, 0.399603516,
          0.286200851, 0.13562943, 0.399603516, 0.218334511, 0.22274822,
          0.332778692, 0.332778692, 0.332778692, 0.332778692,
          0.332778692, 0.332778692, 0.332778692, 0.332778692,
          0.332778692, 0.366936237, 0.366936237, 0.366936237,
          0.366936237, 0.366936237, 0.366936237, 0.095718205, 0.21136874,
          0.366936237, 0.415686429, 0.415686429, 0.415686429,
          0.415686429, 0.415686429, 0.236416101, 0.189912543,
          0.135774851, 0.146551475, 0.372965574, 0.395533323,
          0.421672553, 0.231391206, 0.25861463, 0.421672553, 0.421672553,
          0.160904035, 0.143181831, 0.207064122, 0.330563664,
          0.482264131, 0.155207604, 0.482264131, 0.482264131,
          0.264186472, 0.0903507769, 0.207971156, 0.394510329,
          0.394510329, 0.394510329, 0.203907147, 0.160857528,
          0.152398124, 0.394510329, 0.356634766, 0.394510329,
          0.311185569, 0.458521456, 0.146713927, 0.0463996343,
          0.129755691, 0.458521456, 0.458521456, 0.458521456,
          0.130772322, 0.433640689, 0.433640689, 0.433640689,
          0.024322696, 0.162385792, 0.319024742, 0.264489084,
          0.211658537, 0.433640689, 0.394510329, 0.394510329,
          0.394510329, 0.203907147, 0.160857528, 0.152398124,
          0.394510329, 0.356634766, 0.394510329, 0.311185569,
          0.458521456, 0.146713927, 0.0463996343, 0.129755691,
          0.458521456, 0.458521456, 0.458521456, 0.130772322,
          0.433640689, 0.433640689, 0.433640689, 0.024322696,
          0.162385792, 0.319024742, 0.264489084, 0.211658537,
          0.433640689, 0.407105654, 0.407105654, 0.203257099,
          0.380541056, 0.407105654, 0.275604993, 0.197006017,
          0.179160863, 0.407105654, 0.327513129, 0.270921081,
          0.106403984, 0.0495193936, 0.347887605, 0.339818925,
          0.433868796, 0.433868796, 0.433868796, 0.29584989, 0.450990528,
          0.450990528, 0.450990528, 0.0206712373, 0.00985930674,
          0.0470688418, 0.302750885, 0.450990528, 0.475039452,
          0.145540774, 0.128409252, 0.205117747, 0.475039452,
          0.475039452, 0.113261923, 0.00572414557, 0.475039452,
          0.383143693, 0.34033227, 0.128553107, 0.246940851, 0.383143693,
          0.383143693, 0.262383789, 0.383143693, 0.383143693,
          0.173397586, 0.0503354631, 0.438038975, 0.438038975,
          0.423528761, 0.0605071597, 0.11168617, 0.438038975,
          0.438038975, 0.366936237, 0.366936237, 0.366936237,
          0.366936237, 0.366936237, 0.366936237, 0.095718205, 0.21136874,
          0.366936237, 0.406820595, 0.406820595, 0.406820595,
          0.406820595, 0.406820595, 0.283700734, 0.0987920985,
          0.152053133, 0.234637916, 0.142031044, 0.0268692486,
          0.0315076821, 0.373435438, 0.422439784, 0.369635493,
          0.422439784, 0.422439784, 0.403041184, 0.207064122,
          0.330563664, 0.482264131, 0.155207604, 0.482264131,
          0.482264131, 0.264186472, 0.0903507769, 0.207971156,
          0.284341723, 0.478381723, 0.478381723, 0.124024168,
          0.197842509, 0.109317437, 0.478381723, 0.379671156, 0.13115029,
          0.0918530226, 0.106885426, 0.126660332, 0.438720644,
          0.487584889, 0.202846304, 0.487584889, 0.487584889,
          0.111294083, 0.433640689, 0.433640689, 0.433640689,
          0.024322696, 0.162385792, 0.319024742, 0.264489084,
          0.211658537, 0.433640689, 0.117644668, 0.54512924, 0.54512924,
          0.0241598859, 0.00726783974, 0.0472283512, 0.54512924,
          0.235065728, 0.17633833, 0.478987396, 0.161934629, 0.151301414,
          0.0397559777, 0.0205109641, 0.10037861, 0.593093574,
          0.554834843, 0.209416658, 0.433640689, 0.433640689,
          0.433640689, 0.024322696, 0.162385792, 0.319024742,
          0.264489084, 0.211658537, 0.433640689, 0.117644668, 0.54512924,
          0.54512924, 0.0241598859, 0.00726783974, 0.0472283512,
          0.54512924, 0.235065728, 0.17633833, 0.478987396, 0.161934629,
          0.151301414, 0.0397559777, 0.0205109641, 0.10037861,
          0.593093574, 0.554834843, 0.209416658, 0.29584989, 0.450990528,
          0.450990528, 0.450990528, 0.0206712373, 0.00985930674,
          0.0470688418, 0.302750885, 0.450990528, 0.368783087,
          0.368783087, 0.368783087, 0.368783087, 0.0361915603,
          0.207361981, 0.368783087, 0.368783087, 0.368783087,
          0.444785893, 0.0681280047, 0.0324523039, 0.00429067435,
          0.0259198081, 0.444785893, 0.444785893, 0.444785893,
          0.444785893, 0.173397586, 0.0503354631, 0.438038975,
          0.438038975, 0.423528761, 0.0605071597, 0.11168617,
          0.438038975, 0.438038975, 0.177083239, 0.0699767247,
          0.41016528, 0.476331145, 0.476331145, 0.476331145, 0.143984318,
          0.0678934976, 0.291095376, 0.504476011, 0.210500106,
          0.0284025427, 0.0647799298, 0.16170837, 0.504476011,
          0.473660976, 0.17443645, 0.394618213 ]
      - [ 0.484914124, 0.484914124, 0.0642181188, 0.00147712487,
          0.0345911123, 0.484914124, 0.484914124, 0.159499645,
          0.154360682, 0.552127361, 0.552127361, 0.155160904,
          0.0530692935, 0.217800483, 0.552127361, 0.0667650327,
          0.0299767777, 0.0163704529, 0.484611005, 0.484611005,
          0.0680126548, 0.0857505277, 0.17276223, 0.102640755,
          0.0583752543, 0.484611005, 0.484611005, 0.246732578,
          0.464474589, 0.464474589, 0.0894810855, 0.0323995575,
          0.464474589, 0.464474589, 0.170940861, 0.1823726, 0.265533686,
          0.520064592, 0.520064592, 0.163408563, 0.271883756,
          0.520064592, 0.109423772, 0.0110211326, 0.0133549767,
          0.114931688, 0.357062668, 0.375654697, 0.375654697,
          0.375654697, 0.375654697, 0.375654697, 0.375654697,
          0.0940492451, 0.0465156324, 0.416593164, 0.416593164,
          0.378435433, 0.407120377, 0.262307048, 0.416593164,
          0.290730357, 0.103612669, 0.00392092252, 0.479824543,
          0.479824543, 0.227196425, 0.479824543, 0.479824543,
          0.150425449, 0.00251892023, 0.00367004448, 0.0048080096,
          0.447656095, 0.500701368, 0.211918399, 0.157603353,
          0.147177055, 0.500701368, 0.44918263, 0.00148673682,
          0.0465156324, 0.416593164, 0.416593164, 0.378435433,
          0.407120377, 0.262307048, 0.416593164, 0.290730357,
          0.103612669, 0.00392092252, 0.479824543, 0.479824543,
          0.227196425, 0.479824543, 0.479824543, 0.150425449,
          0.00251892023, 0.00367004448, 0.0048080096, 0.447656095,
          0.500701368, 0.211918399, 0.157603353, 0.147177055,
          0.500701368, 0.44918263, 0.00148673682, 0.138832808,
          0.297713846, 0.460671037, 0.238105401, 0.103265509,
          0.126387596, 0.460671037, 0.460671037, 0.40927425,
          0.0285487939, 0.698619366, 0.698619366, 0.0419154428,
          0.0601183362, 0.0221270267, 0.0788798034, 0.0624007471,
          0.00981991552, 0.00187662384, 0.353717566, 0.565986753,
          0.0100883637, 0.00309362193, 0.00733763771, 0.565986753,
          0.477889329, 0.00178167748, 0.105678208, 0.120685585,
          0.136239558, 0.219302818, 0.128899843, 0.126979664, 0.40477863,
          0.593758643, 0.593758643, 0.0676694363, 0.634810567,
          0.634810567, 0.1723665, 0.165543154, 0.116933331, 0.201781914,
          0.141790852, 0.226948038, 0.071097903, 0.294258505,
          0.558421969, 0.0607452616, 0.177396894, 0.279588848,
          0.558421969, 0.406910211, 0.0143176802, 0.484611005,
          0.484611005, 0.0680126548, 0.0857505277, 0.17276223,
          0.102640755, 0.0583752543, 0.484611005, 0.484611005,
          0.0669665337, 0.00764830038, 0.092260249, 0.538654625,
          0.218149394, 0.0487202182, 0.24729827, 0.538654625,
          0.538654625, 0.33272329, 0.0657857507, 0.425681263,
          0.425681263, 0.0988318697, 0.0488139726, 0.381177038,
          0.42385748, 0.425681263, 0.114931688, 0.357062668, 0.375654697,
          0.375654697, 0.375654697, 0.375654697, 0.375654697,
          0.375654697, 0.0940492451, 0.00653413171, 0.0101287402,
          0.12888515, 0.430047512, 0.245536581, 0.152309909, 0.585863709,
          0.585863709, 0.149977863, 0.18738243, 0.337477505, 0.456072897,
          0.456072897, 0.165802076, 0.0858338997, 0.456072897,
          0.405064017, 0.153294131, 0.0048080096, 0.447656095,
          0.500701368, 0.211918399, 0.157603353, 0.147177055,
          0.500701368, 0.44918263, 0.00148673682, 0.00878920592,
          0.00235204655, 0.218564808, 0.520571887, 0.520571887,
          0.260359049, 0.520571887, 0.257172287, 0.00618507713,
          0.252518386, 0.508795321, 0.508795321, 0.503043711,
          0.137589246, 0.075436458, 0.356000245, 0.0706733912,
          0.0632639378, 0.0048080096, 0.447656095, 0.500701368,
          0.211918399, 0.157603353, 0.147177055, 0.500701368, 0.44918263,
          0.00148673682, 0.00878920592, 0.00235204655, 0.218564808,
          0.520571887, 0.520571887, 0.260359049, 0.520571887,
          0.257172287, 0.00618507713, 0.252518386, 0.508795321,
          0.508795321, 0.503043711, 0.137589246, 0.075436458,
          0.356000245, 0.0706733912, 0.0632639378, 0.00187662384,
          0.353717566, 0.565986753, 0.0100883637, 0.00309362193,
          0.00733763771, 0.565986753, 0.477889329, 0.00178167748,
          0.144390002, 0.181906223, 0.192019671, 0.124163397,
          0.199681967, 0.217697933, 0.688382804, 0.567671895,
          0.0592796206, 0.438053429, 0.438053429, 0.438053429,
          0.117498584, 0.304006308, 0.394526988, 0.359166592,
          0.105663016, 0.133825466, 0.071097903, 0.294258505,
          0.558421969, 0.0607452616, 0.177396894, 0.279588848,
          0.558421969, 0.406910211, 0.0143176802, 0.459078461,
          0.459078461, 0.13448669, 0.0563285872, 0.163476825,
          0.459078461, 0.459078461, 0.305476129, 0.105368353,
          0.371209711, 0.371209711, 0.371209711, 0.175977513,
          0.371209711, 0.371209711, 0.371209711, 0.371209711,
          0.0273250788 ]
      - [ 0.438152552, 0.438152552, 0.0530840941, 0.00060667668,
          0.0104441084, 0.438152552, 0.438152552, 0.438152552,
          0.18112874, 0.512526691, 0.512526691, 0.0490791388,
          0.00252283644, 0.0631569996, 0.357805789, 0.136463121,
          0.403839588, 0.391633481, 0.207768872, 0.122637495,
          0.0844048038, 0.0236264896, 0.317744404, 0.0968815014,
          0.140219241, 0.631583393, 0.631583393, 0.276134729,
          0.447835654, 0.447835654, 0.176329687, 0.255014926,
          0.447835654, 0.447835654, 0.13720949, 0.0458039418, 0.31616047,
          0.38438946, 0.38438946, 0.356152266, 0.38438946, 0.38438946,
          0.38438946, 0.168480322, 0.0468623489, 0.0610835776,
          0.0186638422, 0.106712513, 0.465907484, 0.386564791,
          0.297969997, 0.465907484, 0.465907484, 0.300751448,
          0.0722473636, 0.419562787, 0.419562787, 0.279144049,
          0.419562787, 0.419562787, 0.419562787, 0.174230665,
          0.0463351607, 0.00346104009, 0.526455522, 0.526455522,
          0.0727626979, 0.168164313, 0.213676378, 0.526455522,
          0.289013028, 0.0224586744, 0.181093514, 0.0165486503,
          0.155933276, 0.464341313, 0.436903775, 0.229644373,
          0.464341313, 0.464341313, 0.217986107, 0.0722473636,
          0.419562787, 0.419562787, 0.279144049, 0.419562787,
          0.419562787, 0.419562787, 0.174230665, 0.0463351607,
          0.00346104009, 0.526455522, 0.526455522, 0.0727626979,
          0.168164313, 0.213676378, 0.526455522, 0.289013028,
          0.0224586744, 0.181093514, 0.0165486503, 0.155933276,
          0.464341313, 0.436903775, 0.229644373, 0.464341313,
          0.464341313, 0.217986107, 0.0354402401, 0.472322315,
          0.472322315, 0.276402801, 0.0665450618, 0.0871952698,
          0.472322315, 0.472322315, 0.115078792, 0.0650791749,
          0.440178871, 0.440178871, 0.440178871, 0.440178871,
          0.017802123, 0.351077229, 0.249453008, 0.174754247,
          0.482146174, 0.00847096834, 0.0160370618, 0.065085344,
          0.482146174, 0.0449269302, 0.403696299, 0.35809961,
          0.482146174, 0.0497094654, 0.068248257, 0.398810267,
          0.398810267, 0.296634287, 0.325033903, 0.398810267,
          0.398810267, 0.398810267, 0.108926125, 0.0911704376,
          0.490419149, 0.551496208, 0.551496208, 0.0634485707,
          0.0518758893, 0.201436847, 0.279669434, 0.111443199,
          0.00310641481, 0.00816968642, 0.175053716, 0.946705639,
          0.190513015, 0.0362111926, 0.0124294339, 0.115771212,
          0.207768872, 0.122637495, 0.0844048038, 0.0236264896,
          0.317744404, 0.0968815014, 0.140219241, 0.631583393,
          0.631583393, 0.114674732, 0.10642729, 0.200209439, 0.440812647,
          0.440812647, 0.125042319, 0.440812647, 0.440812647,
          0.371668249, 0.139383018, 0.148790836, 0.29753831, 0.471419632,
          0.471419632, 0.0892069936, 0.0990524888, 0.430265516,
          0.466717631, 0.0610835776, 0.0186638422, 0.106712513,
          0.465907484, 0.386564791, 0.297969997, 0.465907484,
          0.465907484, 0.300751448, 0.043964766, 0.0150886942,
          0.096451059, 0.176435709, 0.156355575, 0.217745885, 0.64349556,
          0.64349556, 0.225719213, 0.0822631121, 0.102140479,
          0.454052031, 0.454052031, 0.454052031, 0.356181115,
          0.391444504, 0.244983569, 0.140229002, 0.181093514,
          0.0165486503, 0.155933276, 0.464341313, 0.436903775,
          0.229644373, 0.464341313, 0.464341313, 0.217986107,
          0.457829714, 0.0128865112, 0.0887187719, 0.230439246,
          0.36515674, 0.323807001, 0.457829714, 0.259370744, 0.457829714,
          0.641680658, 0.0862052292, 0.162721053, 0.140804321,
          0.251879096, 0.0960165039, 0.154822409, 0.140420601,
          0.641680658, 0.181093514, 0.0165486503, 0.155933276,
          0.464341313, 0.436903775, 0.229644373, 0.464341313,
          0.464341313, 0.217986107, 0.457829714, 0.0128865112,
          0.0887187719, 0.230439246, 0.36515674, 0.323807001,
          0.457829714, 0.259370744, 0.457829714, 0.641680658,
          0.0862052292, 0.162721053, 0.140804321, 0.251879096,
          0.0960165039, 0.154822409, 0.140420601, 0.641680658,
          0.482146174, 0.00847096834, 0.0160370618, 0.065085344,
          0.482146174, 0.0449269302, 0.403696299, 0.35809961,
          0.482146174, 0.574176371, 0.000647506153, 0.00203604577,
          0.021461945, 0.574176371, 0.0685161948, 0.00667671673,
          0.00517793279, 0.574176371, 0.532009542, 0.00294295349,
          0.00700734695, 0.0232682712, 0.532009542, 0.186120674,
          0.252860576, 0.215420678, 0.532009542, 0.111443199,
          0.00310641481, 0.00816968642, 0.175053716, 0.946705639,
          0.190513015, 0.0362111926, 0.0124294339, 0.115771212,
          0.237018481, 0.0534032695, 0.0124795362, 0.0699628517,
          0.925194561, 0.234184533, 0.00914429501, 0.00315954862,
          0.12557137, 0.514400661, 0.514400661, 0.0476382114,
          0.0793667436, 0.514400661, 0.390058905, 0.146212876,
          0.03863772, 0.132110447 ]
      - [ 0.533988118, 0.533988118, 0.124383666, 0.0436665677,
          0.346155256, 0.533988118, 0.0197018534, 0.00274677482,
          0.0404992774, 0.404257655, 0.414282858, 0.0554661676,
          0.0301846899, 0.571845293, 0.571845293, 0.00869258679,
          0.01722534, 0.0293478798, 0.306030005, 0.450118989,
          0.450118989, 0.257495135, 0.450118989, 0.450118989,
          0.130189255, 0.0835153013, 0.0345471241, 0.231455281,
          0.26684314, 0.106852859, 0.0485155508, 0.484668493,
          0.509311616, 0.509311616, 0.295473427, 0.123937592,
          0.419945329, 0.419945329, 0.351710916, 0.198176727,
          0.419945329, 0.419945329, 0.102392599, 0.21332936, 0.267245978,
          0.214858785, 0.560861349, 0.560861349, 0.341311276,
          0.0823373049, 0.0742343068, 0.0705397129, 0.359709501,
          0.236545414, 0.140136138, 0.294129431, 0.15382579,
          0.0396350361, 0.0795062333, 0.0494303033, 0.630255699,
          0.630255699, 0.24313511, 0.452904791, 0.452904791, 0.131449923,
          0.183024734, 0.452904791, 0.452904791, 0.275439054,
          0.125002772, 0.180874258, 0.215800717, 0.471090943,
          0.471090943, 0.471090943, 0.471090943, 0.205700487,
          0.059596058, 0.106764279, 0.0612782426, 0.140136138,
          0.294129431, 0.15382579, 0.0396350361, 0.0795062333,
          0.0494303033, 0.630255699, 0.630255699, 0.24313511,
          0.452904791, 0.452904791, 0.131449923, 0.183024734,
          0.452904791, 0.452904791, 0.275439054, 0.125002772,
          0.180874258, 0.215800717, 0.471090943, 0.471090943,
          0.471090943, 0.471090943, 0.205700487, 0.059596058,
          0.106764279, 0.0612782426, 0.00455053011, 0.0491704531,
          0.0824354663, 0.303487092, 0.127604544, 0.0489342213,
          0.539935768, 0.539935768, 0.539935768, 0.124051161,
          0.262299567, 0.242144808, 0.300762326, 0.392759621,
          0.266676277, 0.275360018, 0.479960889, 0.479960889,
          0.274624735, 0.50568378, 0.50568378, 0.50568378, 0.128307819,
          0.121539958, 0.137278363, 0.209993258, 0.241257757,
          0.0520185828, 0.0713125318, 0.117885955, 0.566878259,
          0.0926189497, 0.00312763522, 0.00314550777, 0.566878259,
          0.566878259, 0.0409546718, 0.0482555106, 0.0675111637,
          0.572705209, 0.0232811105, 0.00990591198, 0.0332207121,
          0.572705209, 0.572705209, 0.399306834, 0.399306834,
          0.399306834, 0.399306834, 0.0317962281, 0.0883286595,
          0.17470634, 0.399306834, 0.399306834, 0.306030005, 0.450118989,
          0.450118989, 0.257495135, 0.450118989, 0.450118989,
          0.130189255, 0.0835153013, 0.0345471241, 0.355467767,
          0.355467767, 0.355467767, 0.355467767, 0.355467767,
          0.254971504, 0.355467767, 0.355467767, 0.216648847,
          0.216703877, 0.232859865, 0.409706831, 0.409706831,
          0.409706831, 0.155887589, 0.177548975, 0.409706831,
          0.409218162, 0.214858785, 0.560861349, 0.560861349,
          0.341311276, 0.0823373049, 0.0742343068, 0.0705397129,
          0.359709501, 0.236545414, 0.188209087, 0.34791854, 0.358358502,
          0.358358502, 0.263486028, 0.358358502, 0.358358502,
          0.358358502, 0.358358502, 0.380493313, 0.0765662193,
          0.209932908, 0.395467252, 0.395467252, 0.395467252,
          0.139169246, 0.395467252, 0.395467252, 0.215800717,
          0.471090943, 0.471090943, 0.471090943, 0.471090943,
          0.205700487, 0.059596058, 0.106764279, 0.0612782426,
          0.350031078, 0.350031078, 0.350031078, 0.350031078,
          0.350031078, 0.350031078, 0.350031078, 0.203801259,
          0.311954588, 0.454667091, 0.0312947705, 0.0814953819,
          0.454667091, 0.454667091, 0.261082977, 0.058244355,
          0.298985153, 0.454667091, 0.215800717, 0.471090943,
          0.471090943, 0.471090943, 0.471090943, 0.205700487,
          0.059596058, 0.106764279, 0.0612782426, 0.350031078,
          0.350031078, 0.350031078, 0.350031078, 0.350031078,
          0.350031078, 0.350031078, 0.203801259, 0.311954588,
          0.454667091, 0.0312947705, 0.0814953819, 0.454667091,
          0.454667091, 0.261082977, 0.058244355, 0.298985153,
          0.454667091, 0.274624735, 0.50568378, 0.50568378, 0.50568378,
          0.128307819, 0.121539958, 0.137278363, 0.209993258,
          0.241257757, 0.347312659, 0.347312659, 0.347312659,
          0.347312659, 0.300259501, 0.276814222, 0.325563401,
          0.347312659, 0.347312659, 0.370933503, 0.370933503, 0.29790467,
          0.370933503, 0.370933503, 0.370933503, 0.130140767,
          0.255069315, 0.370933503, 0.399306834, 0.399306834,
          0.399306834, 0.399306834, 0.0317962281, 0.0883286595,
          0.17470634, 0.399306834, 0.399306834, 0.380939096, 0.380939096,
          0.380939096, 0.380939096, 0.245198593, 0.193175584,
          0.380939096, 0.167533413, 0.380939096, 0.398335189,
          0.151472494, 0.335341513, 0.181086034, 0.398335189,
          0.398335189, 0.398335189, 0.185677454, 0.398335189 ]
      - [ 0.458182782, 0.458182782, 0.133056045, 0.0348682292,
          0.103844009, 0.458182782, 0.455026984, 0.134613201,
          0.332799315, 0.392270595, 0.46364671, 0.46364671, 0.051711563,
          0.42183581, 0.46364671, 0.0955808535, 0.00760490401,
          0.0823089853, 0.357563227, 0.357563227, 0.357563227,
          0.0270357076, 0.341134757, 0.334985226, 0.357563227,
          0.357563227, 0.357563227, 0.338324487, 0.362233162,
          0.121936575, 0.0225366279, 0.0496133603, 0.600995779,
          0.600995779, 0.0897574648, 0.00606039166, 0.0375526361,
          0.546007812, 0.546007812, 0.0437441282, 0.0779924691,
          0.546007812, 0.286681622, 0.0914445892, 0.0147939259,
          0.0193773583, 0.533074558, 0.533074558, 0.00705730869,
          0.00651819212, 0.0199210271, 0.533074558, 0.375846624,
          0.00676346337, 0.160815686, 0.0941255167, 0.066658482,
          0.0248025991, 0.059765026, 0.615592122, 0.615592122,
          0.432034075, 0.0770791769, 0.0416163877, 0.674703181,
          0.674703181, 0.0181003734, 0.131043121, 0.17856276,
          0.164033622, 0.048138041, 0.0497478582, 0.00379276858,
          0.495743483, 0.554720223, 0.00109626004, 0.00186294469,
          0.0207317472, 0.554720223, 0.364441633, 0.00177906826,
          0.160815686, 0.0941255167, 0.066658482, 0.0248025991,
          0.059765026, 0.615592122, 0.615592122, 0.432034075,
          0.0770791769, 0.0416163877, 0.674703181, 0.674703181,
          0.0181003734, 0.131043121, 0.17856276, 0.164033622,
          0.048138041, 0.0497478582, 0.00379276858, 0.495743483,
          0.554720223, 0.00109626004, 0.00186294469, 0.0207317472,
          0.554720223, 0.364441633, 0.00177906826, 0.0479019061,
          0.116439797, 0.47274524, 0.251698047, 0.157507509, 0.47274524,
          0.47274524, 0.452885538, 0.125280842, 0.237569317, 0.483772427,
          0.483772427, 0.111319281, 0.0629862398, 0.0152200358,
          0.0717839003, 0.463549167, 0.483772427, 0.0352039039,
          0.442722946, 0.53996706, 0.0104845827, 0.00978471246,
          0.00130198395, 0.53996706, 0.422248006, 0.189037457,
          0.0424465165, 0.346931219, 0.505739152, 0.127113894,
          0.184499562, 0.0971591175, 0.505739152, 0.505739152,
          0.214083493, 0.101777516, 0.508277357, 0.508277357,
          0.184705466, 0.0144957304, 0.0138840834, 0.127767831,
          0.432318628, 0.479718953, 0.434453577, 0.434453577,
          0.434453577, 0.0737385601, 0.0246028136, 0.0192317422,
          0.21330294, 0.434453577, 0.434453577, 0.357563227, 0.357563227,
          0.357563227, 0.0270357076, 0.341134757, 0.334985226,
          0.357563227, 0.357563227, 0.357563227, 0.260727584,
          0.0141908713, 0.0188164357, 0.417344332, 0.443494618,
          0.132542863, 0.443494618, 0.443494618, 0.381089687,
          0.0958395377, 0.103062928, 0.323430419, 0.525188982,
          0.495965719, 0.035227228, 0.108319789, 0.470663667,
          0.337693095, 0.0193773583, 0.533074558, 0.533074558,
          0.00705730869, 0.00651819212, 0.0199210271, 0.533074558,
          0.375846624, 0.00676346337, 0.0116565162, 0.0219743382,
          0.0678009838, 0.017129939, 0.0190726109, 0.0290713739,
          0.702181876, 0.702181876, 0.0123989433, 0.14461191,
          0.115003422, 0.488005638, 0.488005638, 0.317170918,
          0.0973621532, 0.361283779, 0.469088614, 0.15505372,
          0.00379276858, 0.495743483, 0.554720223, 0.00109626004,
          0.00186294469, 0.0207317472, 0.554720223, 0.364441633,
          0.00177906826, 0.13762711, 0.126702249, 0.164803699,
          0.00532590738, 0.0118630035, 0.0223302618, 0.680850446,
          0.680850446, 0.0571475774, 0.455911607, 0.260649115,
          0.187557906, 0.0778948665, 0.0853797048, 0.218062773,
          0.455911607, 0.455911607, 0.455911607, 0.00379276858,
          0.495743483, 0.554720223, 0.00109626004, 0.00186294469,
          0.0207317472, 0.554720223, 0.364441633, 0.00177906826,
          0.13762711, 0.126702249, 0.164803699, 0.00532590738,
          0.0118630035, 0.0223302618, 0.680850446, 0.680850446,
          0.0571475774, 0.455911607, 0.260649115, 0.187557906,
          0.0778948665, 0.0853797048, 0.218062773, 0.455911607,
          0.455911607, 0.455911607, 0.0352039039, 0.442722946,
          0.53996706, 0.0104845827, 0.00978471246, 0.00130198395,
          0.53996706, 0.422248006, 0.189037457, 0.469718039, 0.493768662,
          0.135381028, 0.00295933988, 0.00507948454, 0.0021296537,
          0.493768662, 0.493768662, 0.156983525, 0.490810633,
          0.465402901, 0.029939536, 0.0173192807, 0.0148349926,
          0.0282230508, 0.491624087, 0.491624087, 0.228020743,
          0.434453577, 0.434453577, 0.434453577, 0.0737385601,
          0.0246028136, 0.0192317422, 0.21330294, 0.434453577,
          0.434453577, 0.395623326, 0.425799668, 0.104219005,
          0.0220497902, 0.0300598275, 0.425799668, 0.425799668,
          0.425799668, 0.318991929, 0.075197421, 0.511682034,
          0.114279523, 0.024822237, 0.0591989122, 0.362630367,
          0.552945554, 0.520975292, 0.0340546481 ]
      - [ 0.633683443, 0.633683443, 0.22359775, 0.0487939529,
          0.0769837722, 0.0399281345, 0.0395341404, 0.148964018,
          0.326975673, 0.419837087, 0.419837087, 0.381420553, 0.30529654,
          0.274404436, 0.311946839, 0.302505791, 0.125636756,
          0.353113562, 0.423859894, 0.342158467, 0.423859894,
          0.384791583, 0.352403492, 0.19459562, 0.170971334,
          0.0192483496, 0.423859894, 0.439993918, 0.571408868,
          0.571408868, 0.029826222, 0.00848163385, 0.0106595382,
          0.0165344998, 0.202033073, 0.324834555, 0.180145293,
          0.374162704, 0.296154082, 0.282887727, 0.215618819,
          0.371159464, 0.396486849, 0.396486849, 0.396486849,
          0.142472893, 0.498595297, 0.498595297, 0.498595297,
          0.159509614, 0.187249377, 0.329867214, 0.223861039,
          0.0974579975, 0.0330564827, 0.645388544, 0.645388544,
          0.391601354, 0.0309465043, 0.00583051657, 0.037965104,
          0.0552344248, 0.0239935201, 0.0581709146, 0.101085648,
          0.367302716, 0.112543061, 0.0135799879, 0.181455776,
          0.521911085, 0.521911085, 0.505683124, 0.319941789,
          0.179399669, 0.37746951, 0.37746951, 0.343709588, 0.281626821,
          0.37746951, 0.307081342, 0.37746951, 0.0330564827, 0.645388544,
          0.645388544, 0.391601354, 0.0309465043, 0.00583051657,
          0.037965104, 0.0552344248, 0.0239935201, 0.0581709146,
          0.101085648, 0.367302716, 0.112543061, 0.0135799879,
          0.181455776, 0.521911085, 0.521911085, 0.505683124,
          0.319941789, 0.179399669, 0.37746951, 0.37746951, 0.343709588,
          0.281626821, 0.37746951, 0.307081342, 0.37746951,
          0.00912779383, 0.0203470159, 0.703158081, 0.703158081,
          0.0518223234, 2.37670774e-05, 0.00603535492, 0.0257870853,
          0.0152950939, 0.10921026, 0.00721165771, 0.300339758,
          0.494643688, 0.318639129, 0.00944281369, 0.239248112,
          0.494643688, 0.494643688, 0.608626246, 0.0177915562,
          0.130199328, 0.274425954, 0.310069829, 0.124167562,
          0.0478581898, 0.215967119, 0.608626246, 0.0188607965,
          0.0107115284, 0.47345078, 0.657681584, 0.551786602,
          0.0540289544, 0.150333151, 0.0756918713, 0.0233677421,
          0.0108628254, 0.000981708174, 0.056101162, 0.70294714,
          0.70294714, 0.0204516202, 0.0223478638, 0.0146170584,
          0.0177730806, 0.0135133537, 0.00104681344, 0.0026309255,
          0.69354099, 0.69354099, 0.174192429, 0.00109747786,
          0.00487603433, 0.0227998774, 0.423859894, 0.342158467,
          0.423859894, 0.384791583, 0.352403492, 0.19459562, 0.170971334,
          0.0192483496, 0.423859894, 0.569981754, 0.0307116229,
          0.0668413267, 0.0332394727, 0.00286562578, 0.0114175538,
          0.0120053161, 0.418953031, 0.697024047, 0.424736708,
          0.228402719, 0.0976654813, 0.0711916089, 0.0235079471,
          0.000674480805, 0.00289238198, 0.610804319, 0.610804319,
          0.142472893, 0.498595297, 0.498595297, 0.498595297,
          0.159509614, 0.187249377, 0.329867214, 0.223861039,
          0.0974579975, 0.163804263, 0.141660601, 0.450732768,
          0.450732768, 0.294769734, 0.129399836, 0.179789975,
          0.450732768, 0.450732768, 0.00942692906, 0.0116105406,
          0.0510200821, 0.0832902938, 0.0813850313, 0.0451196171,
          0.312634856, 0.662278056, 0.662278056, 0.319941789,
          0.179399669, 0.37746951, 0.37746951, 0.343709588, 0.281626821,
          0.37746951, 0.307081342, 0.37746951, 0.190416962, 0.0144600691,
          0.159538999, 0.599042773, 0.599042773, 0.136393815,
          0.0531533025, 0.167620301, 0.406040311, 0.134629831,
          0.132619619, 0.294533163, 0.453166097, 0.453166097,
          0.221340179, 0.453166097, 0.453166097, 0.0508050136,
          0.319941789, 0.179399669, 0.37746951, 0.37746951, 0.343709588,
          0.281626821, 0.37746951, 0.307081342, 0.37746951, 0.190416962,
          0.0144600691, 0.159538999, 0.599042773, 0.599042773,
          0.136393815, 0.0531533025, 0.167620301, 0.406040311,
          0.134629831, 0.132619619, 0.294533163, 0.453166097,
          0.453166097, 0.221340179, 0.453166097, 0.453166097,
          0.0508050136, 0.608626246, 0.0177915562, 0.130199328,
          0.274425954, 0.310069829, 0.124167562, 0.0478581898,
          0.215967119, 0.608626246, 0.453583866, 0.052811332,
          0.0458977558, 0.345128864, 0.453583866, 0.201112211,
          0.0897799656, 0.453583866, 0.453583866, 0.337222129,
          0.337222129, 0.337222129, 0.326261163, 0.337222129,
          0.337222129, 0.337222129, 0.319429994, 0.325324714,
          0.0135133537, 0.00104681344, 0.0026309255, 0.69354099,
          0.69354099, 0.174192429, 0.00109747786, 0.00487603433,
          0.0227998774, 0.016117746, 0.00941201206, 0.0134126432,
          0.197994262, 0.657761753, 0.657761753, 0.159341142,
          0.183509022, 0.171280563, 0.0520764105, 0.265856713,
          0.216081187, 0.222864121, 0.462695092, 0.462695092,
          0.462695092, 0.407713205, 0.130907834 ]
      - [ 0.522823572, 0.522823572, 0.140211657, 0.0871559605,
          0.183600262, 0.522823572, 0.324100077, 0.0394190997,
          0.0847698376, 0.238981977, 0.486496657, 0.486496657,
          0.103837274, 0.453405797, 0.486496657, 0.103491232,
          0.00564151024, 0.0298393853, 0.414545923, 0.414545923,
          0.414545923, 0.00667519728, 0.17295137, 0.209170908,
          0.414545923, 0.414102167, 0.251546979, 0.459210724,
          0.501180589, 0.0369204059, 0.0477780141, 0.128940493,
          0.501180589, 0.501180589, 0.0950459316, 0.0356214382,
          0.00624478795, 0.627808511, 0.627808511, 0.253504515,
          0.159707412, 0.159185812, 0.291339666, 0.0725154504,
          0.0125377662, 0.000503071933, 0.529106081, 0.529106081,
          0.012163192, 0.00536997803, 0.0159201287, 0.529106081,
          0.392970502, 0., 0.113759972, 0.13907294, 0.220288008,
          0.114457913, 0.318143874, 0.511912763, 0.511912763,
          0.511912763, 0.116610229, 0.351908058, 0.486199826,
          0.486199826, 0.0860903934, 0.0653498843, 0.0384383537,
          0.203428403, 0.328010976, 0.486199826, 0.0233159065,
          0.530598998, 0.530598998, 0.00604460062, 0.00299956487,
          0.00507795811, 0.530598998, 0.383058161, 0.0524104238,
          0.113759972, 0.13907294, 0.220288008, 0.114457913, 0.318143874,
          0.511912763, 0.511912763, 0.511912763, 0.116610229,
          0.351908058, 0.486199826, 0.486199826, 0.0860903934,
          0.0653498843, 0.0384383537, 0.203428403, 0.328010976,
          0.486199826, 0.0233159065, 0.530598998, 0.530598998,
          0.00604460062, 0.00299956487, 0.00507795811, 0.530598998,
          0.383058161, 0.0524104238, 0.114209086, 0.472889632,
          0.472889632, 0.140734628, 0.127387092, 0.169037282,
          0.472889632, 0.472889632, 0.1520762, 0.275358945, 0.490856081,
          0.490856081, 0.135569826, 0.021851318, 0.00383651955,
          0.0438253544, 0.419122666, 0.490856081, 0.344395846,
          0.43792063, 0.43792063, 0.0513589866, 0.0383846723,
          0.0182558093, 0.324768662, 0.43792063, 0.43792063,
          0.0742657408, 0.155017778, 0.322384983, 0.470266581,
          0.196506009, 0.0717715696, 0.393201232, 0.470266581,
          0.470266581, 0.0246924218, 0.417476386, 0.580998182,
          0.580998182, 0.316560447, 0.0174766611, 0.114549875,
          0.0698176995, 0.160225943, 0.0745516643, 0.0466023646,
          0.219671741, 0.535441816, 0.498419762, 0.535441816,
          0.290848702, 0.0308220536, 0.176935747, 0.414545923,
          0.414545923, 0.414545923, 0.00667519728, 0.17295137,
          0.209170908, 0.414545923, 0.414102167, 0.251546979,
          0.249986559, 0.0212907977, 0.015584535, 0.207058519,
          0.324097335, 0.0683373734, 0.605740309, 0.605740309,
          0.210564911, 0.0484406017, 0.0320725366, 0.258935422,
          0.531177223, 0.531177223, 0.132918268, 0.17104733, 0.531177223,
          0.175785407, 0.000503071933, 0.529106081, 0.529106081,
          0.012163192, 0.00536997803, 0.0159201287, 0.529106081,
          0.392970502, 0., 0.0100729968, 0.016602071, 0.0154079404,
          0.0324704014, 0.105210073, 0.055805739, 0.698943555,
          0.698943555, 0.011237531, 0.102090642, 0.124838188,
          0.353989094, 0.379970044, 0.290195346, 0.440992266,
          0.440992266, 0.440631181, 0.180512801, 0.0233159065,
          0.530598998, 0.530598998, 0.00604460062, 0.00299956487,
          0.00507795811, 0.530598998, 0.383058161, 0.0524104238,
          0.485977739, 0.488496363, 0.0721468702, 0.00546885235,
          0.00388285075, 0.00317372684, 0.488496363, 0.488496363,
          0.194423527, 0.452953309, 0.434214354, 0.0435148813,
          0.0224702228, 0.027364511, 0.0858579054, 0.452953309,
          0.452953309, 0.425340772, 0.0233159065, 0.530598998,
          0.530598998, 0.00604460062, 0.00299956487, 0.00507795811,
          0.530598998, 0.383058161, 0.0524104238, 0.485977739,
          0.488496363, 0.0721468702, 0.00546885235, 0.00388285075,
          0.00317372684, 0.488496363, 0.488496363, 0.194423527,
          0.452953309, 0.434214354, 0.0435148813, 0.0224702228,
          0.027364511, 0.0858579054, 0.452953309, 0.452953309,
          0.425340772, 0.344395846, 0.43792063, 0.43792063, 0.0513589866,
          0.0383846723, 0.0182558093, 0.324768662, 0.43792063,
          0.43792063, 0.423455805, 0.423455805, 0.0659851879,
          0.016228253, 0.0213818457, 0.423455805, 0.423455805,
          0.423455805, 0.306791902, 0.213931724, 0.483372062,
          0.0591505393, 0.0180959534, 0.015420489, 0.410807282,
          0.519669116, 0.519669116, 0.0495590419, 0.0745516643,
          0.0466023646, 0.219671741, 0.535441816, 0.498419762,
          0.535441816, 0.290848702, 0.0308220536, 0.176935747,
          0.22557275, 0.194901198, 0.0296027455, 0.0436942019,
          0.0619404987, 0.666252315, 0.666252315, 0.0452611074,
          0.0895768553, 0.479003638, 0.479003638, 0.0481165349,
          0.178408995, 0.182701394, 0.479003638, 0.479003638,
          0.0926753879, 0.0363916904 ]
      - [ 0.185041115, 0.121416837, 0.197366431, 0.389053851,
          0.389053851, 0.389053851, 0.389053851, 0.389053851,
          0.389053851, 0.0868073478, 0.226332799, 0.388522416,
          0.388522416, 0.388522416, 0.388522416, 0.388522416,
          0.388522416, 0.177928597, 0.281982243, 0.477322817,
          0.477322817, 0.32376036, 0.477322817, 0.249506027, 0.207417205,
          0.0837207511, 0.122891694, 0.427240133, 0.107524335,
          0.204239219, 0.154842779, 0.0762230903, 0.427240133,
          0.427240133, 0.427240133, 0.427240133, 0.375644475,
          0.375644475, 0.265735269, 0.175646454, 0.375644475,
          0.375644475, 0.375644475, 0.21938023, 0.375644475, 0.354263037,
          0.354263037, 0.354263037, 0.354263037, 0.354263037,
          0.354263037, 0.344910651, 0.0627109706, 0.347204208,
          0.123936012, 0.448330849, 0.448330849, 0.275311053,
          0.106909372, 0.448330849, 0.448330849, 0.259745628,
          0.146512344, 0.36982438, 0.36982438, 0.36982438, 0.14950116,
          0.128701985, 0.36982438, 0.36982438, 0.36982438, 0.36982438,
          0.25813067, 0.236484841, 0.368576974, 0.368576974, 0.33556208,
          0.286206901, 0.368576974, 0.368576974, 0.368576974,
          0.123936012, 0.448330849, 0.448330849, 0.275311053,
          0.106909372, 0.448330849, 0.448330849, 0.259745628,
          0.146512344, 0.36982438, 0.36982438, 0.36982438, 0.14950116,
          0.128701985, 0.36982438, 0.36982438, 0.36982438, 0.36982438,
          0.25813067, 0.236484841, 0.368576974, 0.368576974, 0.33556208,
          0.286206901, 0.368576974, 0.368576974, 0.368576974,
          0.0790634304, 0.272049546, 0.416197151, 0.416197151,
          0.149002671, 0.165161163, 0.416197151, 0.416197151,
          0.416197151, 0.0166846141, 0.334655553, 0.481790692,
          0.481790692, 0.0746423826, 0.0293374248, 0.314352661,
          0.481790692, 0.285128951, 0.406493425, 0.0324889533,
          0.360795498, 0.406493425, 0.168293938, 0.10100919, 0.406493425,
          0.406493425, 0.406493425, 0.122235738, 0.0607903041, 0.2336815,
          0.438293368, 0.365966707, 0.141569585, 0.438293368,
          0.438293368, 0.438293368, 0.12012434, 0.291480303, 0.377827674,
          0.472670376, 0.215937227, 0.143043607, 0.125667587,
          0.472670376, 0.472670376, 0.357376277, 0.0548084266,
          0.0546768941, 0.464017123, 0.464017123, 0.0193826221,
          0.0055375644, 0.464017123, 0.464017123, 0.281982243,
          0.477322817, 0.477322817, 0.32376036, 0.477322817, 0.249506027,
          0.207417205, 0.0837207511, 0.122891694, 0.376126617,
          0.352752507, 0.376126617, 0.370518357, 0.376126617,
          0.0109659201, 0.164461777, 0.376126617, 0.376126617,
          0.384663582, 0.384663582, 0.384663582, 0.384663582, 0.17797929,
          0.0660414547, 0.268928528, 0.384663582, 0.384663582,
          0.354263037, 0.354263037, 0.354263037, 0.354263037,
          0.354263037, 0.354263037, 0.344910651, 0.0627109706,
          0.347204208, 0.482828766, 0.131282762, 0.151010975,
          0.482828766, 0.482828766, 0.00657968456, 0.0309171658,
          0.147120714, 0.482828766, 0.0719463453, 0.0671308562,
          0.117813438, 0.487185806, 0.487185806, 0.1382851, 0.0552131385,
          0.487185806, 0.487185806, 0.25813067, 0.236484841, 0.368576974,
          0.368576974, 0.33556208, 0.286206901, 0.368576974, 0.368576974,
          0.368576974, 0.302724153, 0.212977052, 0.451444238,
          0.451444238, 0.451444238, 0.0907541141, 0.102745369,
          0.156489685, 0.451444238, 0.0547003523, 0.0151191205,
          0.0415904894, 0.505054235, 0.452112854, 0.0451741852,
          0.135348514, 0.505054235, 0.505054235, 0.25813067, 0.236484841,
          0.368576974, 0.368576974, 0.33556208, 0.286206901, 0.368576974,
          0.368576974, 0.368576974, 0.302724153, 0.212977052,
          0.451444238, 0.451444238, 0.451444238, 0.0907541141,
          0.102745369, 0.156489685, 0.451444238, 0.0547003523,
          0.0151191205, 0.0415904894, 0.505054235, 0.452112854,
          0.0451741852, 0.135348514, 0.505054235, 0.505054235,
          0.406493425, 0.0324889533, 0.360795498, 0.406493425,
          0.168293938, 0.10100919, 0.406493425, 0.406493425, 0.406493425,
          0.465290993, 0.0340790786, 0.120147131, 0.465290993,
          0.465290993, 0.261071384, 0.0820780843, 0.197174832,
          0.465290993, 0.147817791, 0.212990493, 0.342292309,
          0.383192837, 0.383192837, 0.381775141, 0.280523598,
          0.383192837, 0.383192837, 0.357376277, 0.0548084266,
          0.0546768941, 0.464017123, 0.464017123, 0.0193826221,
          0.0055375644, 0.464017123, 0.464017123, 0.489697993,
          0.0607568249, 0.0319393426, 0.202848494, 0.489697993,
          0.460657001, 0.00839292165, 0.132522672, 0.489697993,
          0.383183271, 0.371465474, 0.121826693, 0.0738079622,
          0.383183271, 0.383183271, 0.322100461, 0.383183271,
          0.383183271 ]
      - [ 0.545381308, 0.545381308, 0.0497117117, 0.108746849,
          0.260238826, 0.545381308, 0.139333799, 0.0168499332,
          0.0226297118, 0.267232478, 0.522218287, 0.349765062,
          0.105956055, 0.460722625, 0.522218287, 0.177972689,
          0.0191028733, 0.00898798462, 0.355527639, 0.355527639,
          0.355527639, 0.355527639, 0.355527639, 0.299126893,
          0.355527639, 0.355527639, 0.148901492, 0.185396865,
          0.320357203, 0.111272044, 0.106187902, 0.322986543,
          0.594823539, 0.594823539, 0.134369448, 0.0582836345,
          0.214944735, 0.472550541, 0.472550541, 0.37717849, 0.154030353,
          0.472550541, 0.229868308, 0.170921206, 0.176420882,
          0.337745965, 0.337745965, 0.337745965, 0.337745965,
          0.305275291, 0.337745965, 0.323922962, 0.337745965,
          0.337745965, 0.0877150819, 0.398255348, 0.483404189,
          0.0236699078, 0.0570819601, 0.167264849, 0.553506494,
          0.47672379, 0.170471862, 0.376728445, 0.501804948, 0.501804948,
          0.401898772, 0.0652387366, 0.264350623, 0.279010326,
          0.152998507, 0.111948304, 0.358178556, 0.358178556,
          0.358178556, 0.358178556, 0.358178556, 0.358178556,
          0.276456743, 0.148155272, 0.358178556, 0.0877150819,
          0.398255348, 0.483404189, 0.0236699078, 0.0570819601,
          0.167264849, 0.553506494, 0.47672379, 0.170471862, 0.376728445,
          0.501804948, 0.501804948, 0.401898772, 0.0652387366,
          0.264350623, 0.279010326, 0.152998507, 0.111948304,
          0.358178556, 0.358178556, 0.358178556, 0.358178556,
          0.358178556, 0.358178556, 0.276456743, 0.148155272,
          0.358178556, 0.0965009555, 0.129466861, 0.410814941,
          0.255060196, 0.0945277661, 0.051093366, 0.491138071,
          0.491138071, 0.491138071, 0.383868068, 0.472707033,
          0.472707033, 0.472707033, 0.056692522, 0.0501922555,
          0.261947721, 0.256066233, 0.19403106, 0.3398467, 0.3398467,
          0.3398467, 0.3398467, 0.3398467, 0.3398467, 0.269514561,
          0.3398467, 0.3398467, 0.00999101903, 0.011419531, 0.23440671,
          0.556459069, 0.0956616029, 0.00450994261, 0.0339869782,
          0.556459069, 0.556459069, 0.391686112, 0.391686112,
          0.391686112, 0.391686112, 0.195711061, 0.0715856701,
          0.17930907, 0.391686112, 0.391686112, 0.351759046, 0.338037461,
          0.351759046, 0.351759046, 0.351759046, 0.351759046,
          0.351759046, 0.126788199, 0.351759046, 0.355527639,
          0.355527639, 0.355527639, 0.355527639, 0.355527639,
          0.299126893, 0.355527639, 0.355527639, 0.148901492,
          0.176296175, 0.333994955, 0.356659919, 0.356659919,
          0.356659919, 0.332679182, 0.356659919, 0.356659919,
          0.327256322, 0.0430363528, 0.0386441424, 0.464832127,
          0.464832127, 0.337678879, 0.115829349, 0.361732006,
          0.464832127, 0.292423338, 0.337745965, 0.337745965,
          0.337745965, 0.337745965, 0.305275291, 0.337745965,
          0.323922962, 0.337745965, 0.337745965, 0.363154888,
          0.120995142, 0.241995364, 0.363154888, 0.363154888,
          0.363154888, 0.363154888, 0.363154888, 0.363154888,
          0.0921347961, 0.134397298, 0.435355663, 0.435355663,
          0.080190815, 0.435355663, 0.435355663, 0.435355663, 0.12245962,
          0.358178556, 0.358178556, 0.358178556, 0.358178556,
          0.358178556, 0.358178556, 0.276456743, 0.148155272,
          0.358178556, 0.219163641, 0.0685176477, 0.145039126,
          0.392155498, 0.392155498, 0.391649067, 0.392155498,
          0.392155498, 0.392155498, 0.0702978596, 0.312803209,
          0.437308609, 0.174034938, 0.283621579, 0.437308609,
          0.437308609, 0.437308609, 0.13099362, 0.358178556, 0.358178556,
          0.358178556, 0.358178556, 0.358178556, 0.358178556,
          0.276456743, 0.148155272, 0.358178556, 0.219163641,
          0.0685176477, 0.145039126, 0.392155498, 0.392155498,
          0.391649067, 0.392155498, 0.392155498, 0.392155498,
          0.0702978596, 0.312803209, 0.437308609, 0.174034938,
          0.283621579, 0.437308609, 0.437308609, 0.437308609, 0.13099362,
          0.3398467, 0.3398467, 0.3398467, 0.3398467, 0.3398467,
          0.3398467, 0.269514561, 0.3398467, 0.3398467, 0.355433315,
          0.341169745, 0.354404926, 0.315749705, 0.216782555,
          0.355433315, 0.355433315, 0.355433315, 0.320039451,
          0.376457661, 0.329395294, 0.19813934, 0.275477588, 0.304539919,
          0.410641193, 0.410641193, 0.410641193, 0.178622648,
          0.351759046, 0.338037461, 0.351759046, 0.351759046,
          0.351759046, 0.351759046, 0.351759046, 0.126788199,
          0.351759046, 0.399546713, 0.154798612, 0.0574488528,
          0.104498856, 0.399546713, 0.399546713, 0.399546713,
          0.399546713, 0.399546713, 0.540959954, 0.540959954,
          0.123245813, 0.0807127878, 0.139458552, 0.539884329,
          0.121269584, 0.201903075, 0.145682752 ]
      - [ 0.429890931, 0.429890931, 0.00872754306, 0.00418551452,
          0.0365294553, 0.394307226, 0.429890931, 0.429890931,
          0.31555444, 0.535337925, 0.535337925, 0.0256789532,
          0.0168797988, 0.114186749, 0.535337925, 0.237018213,
          0.0400968939, 0.251247734, 0.571297586, 0.571297586,
          0.009635414, 0.0213358384, 0.0919559523, 0.512510121,
          0.0905833617, 0.0697906762, 0.238299638, 0.227605641,
          0.342841506, 0.474893838, 0.0640460551, 0.12436045,
          0.484500974, 0.484500974, 0.252487451, 0.217927411,
          0.441110194, 0.441110194, 0.441110194, 0.14491722, 0.441110194,
          0.441110194, 0.030505389, 0.00799266528, 0.0265956968,
          0.426235259, 0.426235259, 0.426235259, 0.276646048,
          0.426235259, 0.426235259, 0.0376476645, 0.0491174012,
          0.0836474746, 0.078188546, 0.135260701, 0.435156554,
          0.329918653, 0.194594815, 0.435156554, 0.435156554,
          0.435156554, 0.259009808, 0.0965635702, 0.457271963,
          0.457271963, 0.365635484, 0.457271963, 0.457271963,
          0.100792214, 0.0653717443, 0.03994295, 0.0238057282,
          0.645525336, 0.645525336, 0.0658831224, 0.217225924,
          0.304988116, 0.118895203, 0.0282299221, 0.0102073867,
          0.078188546, 0.135260701, 0.435156554, 0.329918653,
          0.194594815, 0.435156554, 0.435156554, 0.435156554,
          0.259009808, 0.0965635702, 0.457271963, 0.457271963,
          0.365635484, 0.457271963, 0.457271963, 0.100792214,
          0.0653717443, 0.03994295, 0.0238057282, 0.645525336,
          0.645525336, 0.0658831224, 0.217225924, 0.304988116,
          0.118895203, 0.0282299221, 0.0102073867, 0.0271259826,
          0.0424119011, 0.343926817, 0.30137378, 0.0539820567,
          0.0927266479, 0.340762973, 0.611217916, 0.530124366,
          0.0287659857, 0.497051239, 0.497051239, 0.42071104,
          0.221343294, 0.22584939, 0.352255344, 0.259011358, 0.178658858,
          0.0236798469, 0.497250319, 0.497250319, 0.497250319,
          0.497250319, 0.0320270136, 0.0582348071, 0.0245573856,
          0.0205255076, 0.0286480803, 0.0359173976, 0.0896281973,
          0.431871623, 0.431871623, 0.230165929, 0.431871623,
          0.431871623, 0.431871623, 0.149231106, 0.191169798,
          0.450793684, 0.451820761, 0.319474936, 0.0744412392,
          0.115864016, 0.451820761, 0.451820761, 0.276701331,
          0.108210124, 0.320203483, 0.493947268, 0.493947268,
          0.155472368, 0.0243034735, 0.218057841, 0.493947268,
          0.571297586, 0.571297586, 0.009635414, 0.0213358384,
          0.0919559523, 0.512510121, 0.0905833617, 0.0697906762,
          0.238299638, 0.550516188, 0.128485262, 0.0345348641,
          0.015290847, 0.212200031, 0.137079373, 0.0595293678,
          0.550516188, 0.550516188, 0.0712579712, 0.0493760109,
          0.0755703971, 0.0552997105, 0.510842025, 0.0752343088,
          0.0719314814, 0.594133377, 0.594133377, 0.426235259,
          0.426235259, 0.426235259, 0.276646048, 0.426235259,
          0.426235259, 0.0376476645, 0.0491174012, 0.0836474746,
          0.063528344, 0.0597432591, 0.1409522, 0.407778412, 0.407778412,
          0.407778412, 0.407778412, 0.370185822, 0.407778412,
          0.0160279032, 0.010127306, 0.0400032029, 0.431298465,
          0.431298465, 0.252269655, 0.431298465, 0.431298465,
          0.431298465, 0.0238057282, 0.645525336, 0.645525336,
          0.0658831224, 0.217225924, 0.304988116, 0.118895203,
          0.0282299221, 0.0102073867, 0.0678497925, 0.0510512479,
          0.120096356, 0.268016666, 0.134238809, 0.114307113,
          0.639343917, 0.639343917, 0.227032036, 0.399132103,
          0.0229263846, 0.0359129794, 0.399132103, 0.399132103,
          0.385487556, 0.399132103, 0.221505314, 0.399132103,
          0.0238057282, 0.645525336, 0.645525336, 0.0658831224,
          0.217225924, 0.304988116, 0.118895203, 0.0282299221,
          0.0102073867, 0.0678497925, 0.0510512479, 0.120096356,
          0.268016666, 0.134238809, 0.114307113, 0.639343917,
          0.639343917, 0.227032036, 0.399132103, 0.0229263846,
          0.0359129794, 0.399132103, 0.399132103, 0.385487556,
          0.399132103, 0.221505314, 0.399132103, 0.0236798469,
          0.497250319, 0.497250319, 0.497250319, 0.497250319,
          0.0320270136, 0.0582348071, 0.0245573856, 0.0205255076,
          0.404214114, 0.015775593, 0.0562043265, 0.222527966,
          0.440956324, 0.0388564654, 0.440956324, 0.440956324,
          0.440956324, 0.572384536, 0.00274633337, 0.00203158055,
          0.0469178893, 0.572384536, 0.0387833416, 0.0675813034,
          0.0559273027, 0.572384536, 0.276701331, 0.108210124,
          0.320203483, 0.493947268, 0.493947268, 0.155472368,
          0.0243034735, 0.218057841, 0.493947268, 0.203913629,
          0.00375926029, 0.0139667876, 0.411604285, 0.798912764,
          0.0573786274, 0.0239179507, 0.0717499256, 0.365437567,
          0.170417145, 0.000629670394, 0.00447885739, 0.172435716,
          0.921764374, 0.133203119, 0.0326437019, 0.0302033816,
          0.250273019 ]
      - [ 0.116767675, 0.172534168, 0.418870032, 0.218892038,
          0.0751235634, 0.0392094105, 0.338722974, 0.56322372,
          0.537095904, 0.141515672, 0.216115043, 0.555896938,
          0.555896938, 0.368991435, 0.234298334, 0.161609948,
          0.232848287, 0.195671052, 0.208109751, 0.073200874,
          0.182258531, 0.0948540047, 0.4051902, 0.258123279, 0.36735639,
          0.58413595, 0.443070441, 0.315626293, 0.0585417598,
          0.032202296, 0.0680389926, 0.0313072652, 0.0168726444,
          0.314452797, 0.626452923, 0.626452923, 0.00527442526,
          0.113934413, 0.46120438, 0.512607992, 0.0914732069,
          0.0334474556, 0.323171854, 0.512607992, 0.360142052,
          0.0306307599, 0.104873188, 0.323355377, 0.568916142,
          0.590299308, 0.34003073, 0.25724861, 0.132848293, 0.0777502954,
          0.303538352, 0.143242359, 0.0788084492, 0.369621038,
          0.353464931, 0.0959522724, 0.304632485, 0.538858831, 0.4709782,
          0.00212764973, 0.0428192355, 0.214799136, 0.135869235,
          0.0558593385, 0.0746775344, 0.577516794, 0.67667383,
          0.355945945, 0.148044556, 0.0851025358, 0.434583187,
          0.346654713, 0.184729844, 0.126820132, 0.459593087, 0.49740386,
          0.384702116, 0.303538352, 0.143242359, 0.0788084492,
          0.369621038, 0.353464931, 0.0959522724, 0.304632485,
          0.538858831, 0.4709782, 0.00212764973, 0.0428192355,
          0.214799136, 0.135869235, 0.0558593385, 0.0746775344,
          0.577516794, 0.67667383, 0.355945945, 0.148044556,
          0.0851025358, 0.434583187, 0.346654713, 0.184729844,
          0.126820132, 0.459593087, 0.49740386, 0.384702116, 0.,
          0.00107266125, 0.00740438933, 0.561429501, 0.561429501,
          0.561429501, 0.168777347, 0.142100781, 0.00706871459,
          0.0132959541, 0.00698442943, 0.0158980135, 0.102644756,
          0.332468092, 0.538915217, 0.538915217, 0.538915217,
          0.042189505, 0.268471509, 0.0706712529, 0.0680288449,
          0.428612679, 0.428612679, 0.127168447, 0.428612679,
          0.403747559, 0.428612679, 0.00647284091, 0.00101762533, 0.,
          0.250479966, 0.651889384, 0.651889384, 0.283624262,
          0.0153313363, 0.0105504449, 0.203220531, 0.224302083,
          0.189581603, 0.0360802114, 0.391856909, 0.584250152,
          0.584250152, 0.154528826, 0.0720105171, 0.441786975,
          0.252094209, 0.354541034, 0.260655195, 0.413534731,
          0.0996437445, 0.163248211, 0.374771744, 0.441786975,
          0.208109751, 0.073200874, 0.182258531, 0.0948540047, 0.4051902,
          0.258123279, 0.36735639, 0.58413595, 0.443070441, 0.475112528,
          0.242889941, 0.0339623839, 0.197944075, 0.475112528,
          0.328361303, 0.133512303, 0.305092394, 0.475112528,
          0.461360216, 0.125001594, 0.0683551505, 0.094018124,
          0.461360216, 0.461360216, 0.235085681, 0.244082242,
          0.461360216, 0.0306307599, 0.104873188, 0.323355377,
          0.568916142, 0.590299308, 0.34003073, 0.25724861, 0.132848293,
          0.0777502954, 0.111797869, 0.0176085066, 0.0551924184,
          0.048564259, 0.59651053, 0.59651053, 0.487157792, 0.0907754377,
          0.136447459, 0.149600431, 0.166535601, 0.268759668,
          0.136432961, 0.568295836, 0.568295836, 0.422321141,
          0.129720673, 0.110734969, 0.148044556, 0.0851025358,
          0.434583187, 0.346654713, 0.184729844, 0.126820132,
          0.459593087, 0.49740386, 0.384702116, 0.439559877, 0.299549073,
          0.0766978711, 0.0427762605, 0.078741625, 0.272412956,
          0.434429228, 0.43144998, 0.499010861, 0.552735209, 0.420255244,
          0.174453005, 0.0783338696, 0.121456571, 0.0516072288,
          0.307706773, 0.241174281, 0.552735209, 0.148044556,
          0.0851025358, 0.434583187, 0.346654713, 0.184729844,
          0.126820132, 0.459593087, 0.49740386, 0.384702116, 0.439559877,
          0.299549073, 0.0766978711, 0.0427762605, 0.078741625,
          0.272412956, 0.434429228, 0.43144998, 0.499010861, 0.552735209,
          0.420255244, 0.174453005, 0.0783338696, 0.121456571,
          0.0516072288, 0.307706773, 0.241174281, 0.552735209,
          0.268471509, 0.0706712529, 0.0680288449, 0.428612679,
          0.428612679, 0.127168447, 0.428612679, 0.403747559,
          0.428612679, 0.434226692, 0.130310059, 0.0389393382,
          0.437951863, 0.488471836, 0.420985937, 0.131446481,
          0.148320615, 0.375710785, 0.33632952, 0.125528276, 0.165894553,
          0.287515014, 0.51968801, 0.51968801, 0.139649689, 0.159584448,
          0.413072199, 0.441786975, 0.252094209, 0.354541034,
          0.260655195, 0.413534731, 0.0996437445, 0.163248211,
          0.374771744, 0.441786975, 0.593403637, 0.160923719,
          0.0798496827, 0.130387008, 0.250394493, 0.234007478,
          0.0868817419, 0.339912683, 0.593403637, 0.639279544,
          0.166466549, 0.045867864, 0.0673364028, 0.22992985,
          0.175322831, 0.0535337701, 0.235456765, 0.639279544 ]
      - [ 0.419559538, 0.419559538, 0.419559538, 0.0123856505,
          0.0367483497, 0.394230545, 0.419559538, 0.227968588,
          0.287744433, 0.330533653, 0.460460424, 0.362446487,
          0.0160785988, 0.254397511, 0.460460424, 0.460460424,
          0.138090327, 0.186182201, 0.0616945662, 0.331924617,
          0.210241333, 0.433314472, 0.433314472, 0.433314472,
          0.433314472, 0.267703474, 0.121569142, 0.334143311,
          0.506097019, 0.279686302, 0.00937327649, 0.0232988987,
          0.506097019, 0.506097019, 0.184372008, 0.0451996811,
          0.274337381, 0.451779336, 0.188724458, 0.0684845895,
          0.15809235, 0.54702431, 0.54702431, 0.187274054, 0.12778379,
          0.315873653, 0.372862428, 0.344354033, 0.0722825751,
          0.330786258, 0.372862428, 0.372862428, 0.327367008,
          0.372862428, 0.156321213, 0.499871641, 0.263639718,
          0.013116817, 0.0207322054, 0.569385052, 0.569385052,
          0.031471096, 0.0225705449, 0.379555434, 0.379555434,
          0.298446983, 0.125161782, 0.296343297, 0.379555434,
          0.379555434, 0.288688272, 0.379555434, 0.374782562,
          0.374782562, 0.374782562, 0.154072985, 0.30937469, 0.335202128,
          0.249267235, 0.374782562, 0.374782562, 0.156321213,
          0.499871641, 0.263639718, 0.013116817, 0.0207322054,
          0.569385052, 0.569385052, 0.031471096, 0.0225705449,
          0.379555434, 0.379555434, 0.298446983, 0.125161782,
          0.296343297, 0.379555434, 0.379555434, 0.288688272,
          0.379555434, 0.374782562, 0.374782562, 0.374782562,
          0.154072985, 0.30937469, 0.335202128, 0.249267235, 0.374782562,
          0.374782562, 0.0681189373, 0.49629733, 0.49629733,
          0.0358934291, 0.0437700488, 0.49629733, 0.49629733,
          0.0399498269, 0.0189438574, 0.282573462, 0.488319248,
          0.488319248, 0.421093315, 0.134496525, 0.129495606,
          0.260847837, 0.283841819, 0.278528005, 0.0643837154,
          0.352555066, 0.488063574, 0.248745322, 0.232569769,
          0.0365554951, 0.488063574, 0.488063574, 0.186460555,
          0.317455322, 0.463724941, 0.463724941, 0.0526173525,
          0.155560791, 0.463724941, 0.463724941, 0.0667046532,
          0.0548608117, 0.465199083, 0.465199083, 0.465199083,
          0.323068857, 0.0804616436, 0.0650316998, 0.144234776,
          0.156154469, 0.431112975, 0.463970393, 0.339009762,
          0.405110806, 0.117886096, 0.174665973, 0.0369739793,
          0.334229261, 0.358196586, 0.463970393, 0.0616945662,
          0.331924617, 0.210241333, 0.433314472, 0.433314472,
          0.433314472, 0.433314472, 0.267703474, 0.121569142,
          0.0560140871, 0.326300442, 0.538326442, 0.538326442,
          0.424387604, 0.0306471828, 0.120718762, 0.316286683,
          0.098840788, 0.175918892, 0.0681421608, 0.228834331,
          0.501726806, 0.242036194, 0.11707817, 0.501726806, 0.501726806,
          0.282054722, 0.315873653, 0.372862428, 0.344354033,
          0.0722825751, 0.330786258, 0.372862428, 0.372862428,
          0.327367008, 0.372862428, 0.300943464, 0.368437409,
          0.368437409, 0.368437409, 0.303503126, 0.368437409,
          0.362386018, 0.294586748, 0.229234397, 0.0998171568,
          0.140434891, 0.5128178, 0.5128178, 0.414939642, 0.126201436,
          0.441566199, 0.233029395, 0.0429394059, 0.374782562,
          0.374782562, 0.374782562, 0.154072985, 0.30937469, 0.335202128,
          0.249267235, 0.374782562, 0.374782562, 0.426124096,
          0.426124096, 0.426124096, 0.0902184471, 0.0698838234,
          0.137479082, 0.426124096, 0.426124096, 0.236454993,
          0.116278663, 0.432733506, 0.432733506, 0.432733506,
          0.115130819, 0.0445393659, 0.432733506, 0.432733506,
          0.17500402, 0.374782562, 0.374782562, 0.374782562, 0.154072985,
          0.30937469, 0.335202128, 0.249267235, 0.374782562, 0.374782562,
          0.426124096, 0.426124096, 0.426124096, 0.0902184471,
          0.0698838234, 0.137479082, 0.426124096, 0.426124096,
          0.236454993, 0.116278663, 0.432733506, 0.432733506,
          0.432733506, 0.115130819, 0.0445393659, 0.432733506,
          0.432733506, 0.17500402, 0.0643837154, 0.352555066,
          0.488063574, 0.248745322, 0.232569769, 0.0365554951,
          0.488063574, 0.488063574, 0.186460555, 0.0276286528,
          0.283729851, 0.474053532, 0.295754433, 0.0647731572,
          0.381777167, 0.474053532, 0.474053532, 0.0489769839,
          0.0419902764, 0.316720754, 0.423386633, 0.386129856,
          0.141775429, 0.423386633, 0.423386633, 0.423386633,
          0.0864525586, 0.463970393, 0.339009762, 0.405110806,
          0.117886096, 0.174665973, 0.0369739793, 0.334229261,
          0.358196586, 0.463970393, 0.413404435, 0.413404435,
          0.324952602, 0.0843461454, 0.10808409, 0.130243376,
          0.413404435, 0.413404435, 0.413404435, 0.433272183,
          0.433272183, 0.407144696, 0.106991187, 0.0206439663,
          0.0935893878, 0.433272183, 0.433272183, 0.241606712 ]
      - [ 0.483065903, 0.483065903, 0.483065903, 0.0107248388,
          0.139751598, 0.483065903, 0.201301858, 0.0237969849,
          0.0320985243, 0.387911499, 0.387911499, 0.136725038,
          0.0113001969, 0.272857785, 0.387911499, 0.387911499,
          0.387911499, 0.387911499, 0.34513253, 0.34513253, 0.34513253,
          0.34513253, 0.34513253, 0.208854258, 0.34513253, 0.34513253,
          0.34513253, 0.0492678434, 0.500481367, 0.500481367,
          0.500481367, 0.109423965, 0.161041111, 0.300841868,
          0.317703664, 0.108535804, 0.332778692, 0.332778692,
          0.332778692, 0.332778692, 0.332778692, 0.332778692,
          0.332778692, 0.332778692, 0.332778692, 0.36530003, 0.36530003,
          0.229231998, 0.355675101, 0.36530003, 0.233848855, 0.308856994,
          0.36530003, 0.36530003, 0.415045232, 0.415045232, 0.415045232,
          0.415045232, 0.410192162, 0.0568478517, 0.219885677,
          0.281128556, 0.0890585929, 0.455301851, 0.341979921,
          0.0501506887, 0.455301851, 0.455301851, 0.392662853,
          0.0121279983, 0.0491738543, 0.311990827, 0.4615964,
          0.0341027342, 0.020335814, 0.4615964, 0.4615964, 0.374071628,
          0.0128440605, 0.0378584079, 0.4615964, 0.415045232,
          0.415045232, 0.415045232, 0.415045232, 0.410192162,
          0.0568478517, 0.219885677, 0.281128556, 0.0890585929,
          0.455301851, 0.341979921, 0.0501506887, 0.455301851,
          0.455301851, 0.392662853, 0.0121279983, 0.0491738543,
          0.311990827, 0.4615964, 0.0341027342, 0.020335814, 0.4615964,
          0.4615964, 0.374071628, 0.0128440605, 0.0378584079, 0.4615964,
          0.510874629, 0.510874629, 0.510874629, 0.142867774,
          0.128124028, 0.182366386, 0.289291084, 0.214721069,
          0.109727673, 0.398311824, 0.398311824, 0.177166715,
          0.030884549, 0.398311824, 0.398311824, 0.398311824, 0.30836001,
          0.274466008, 0.487785429, 0.0313110948, 0.00851269253,
          0.353779078, 0.487785429, 0.391571313, 0.030446792,
          0.0292689204, 0.487785429, 0.0666422024, 0.160355404,
          0.472890586, 0.472890586, 0.245294169, 0.0567831248,
          0.0850067958, 0.472890586, 0.472890586, 0.133380771,
          0.0334302597, 0.274090052, 0.463621199, 0.463621199,
          0.111373499, 0.170743704, 0.463621199, 0.463621199,
          0.555019557, 0.0894050002, 0.00335628213, 0.187991932,
          0.555019557, 0.143853858, 0.0175246168, 0.0772719383,
          0.555019557, 0.34513253, 0.34513253, 0.34513253, 0.34513253,
          0.34513253, 0.208854258, 0.34513253, 0.34513253, 0.34513253,
          0.251004457, 0.372901678, 0.428996235, 0.428996235,
          0.174063608, 0.0111053316, 0.164569736, 0.428996235,
          0.428996235, 0.0126854591, 0.0113155274, 0.174381793,
          0.515602171, 0.193317294, 0.0534998365, 0.355502725,
          0.515602171, 0.515602171, 0.36530003, 0.36530003, 0.229231998,
          0.355675101, 0.36530003, 0.233848855, 0.308856994, 0.36530003,
          0.36530003, 0.338199973, 0.338199973, 0.338199973, 0.338199973,
          0.319277406, 0.338199973, 0.338199973, 0.338199973,
          0.306640327, 0.0615870915, 0.231215522, 0.259650916,
          0.318058521, 0.0701700598, 0.500897348, 0.500897348,
          0.500897348, 0.107449479, 0.4615964, 0.0341027342, 0.020335814,
          0.4615964, 0.4615964, 0.374071628, 0.0128440605, 0.0378584079,
          0.4615964, 0.267475784, 0.0856322646, 0.0212896485,
          0.242917806, 0.493539184, 0.493539184, 0.0659816414,
          0.348763257, 0.493539184, 0.0699970275, 0.232005909,
          0.33645907, 0.223849505, 0.316717148, 0.410350889, 0.410350889,
          0.410350889, 0.410350889, 0.4615964, 0.0341027342, 0.020335814,
          0.4615964, 0.4615964, 0.374071628, 0.0128440605, 0.0378584079,
          0.4615964, 0.267475784, 0.0856322646, 0.0212896485,
          0.242917806, 0.493539184, 0.493539184, 0.0659816414,
          0.348763257, 0.493539184, 0.0699970275, 0.232005909,
          0.33645907, 0.223849505, 0.316717148, 0.410350889, 0.410350889,
          0.410350889, 0.410350889, 0.487785429, 0.0313110948,
          0.00851269253, 0.353779078, 0.487785429, 0.391571313,
          0.030446792, 0.0292689204, 0.487785429, 0.244521022,
          0.378266394, 0.386514932, 0.386514932, 0.386514932,
          0.0496494435, 0.209352911, 0.386514932, 0.386514932,
          0.0798193142, 0.388225794, 0.269691318, 0.153807119,
          0.071337752, 0.256592304, 0.525103509, 0.525103509,
          0.344789028, 0.555019557, 0.0894050002, 0.00335628213,
          0.187991932, 0.555019557, 0.143853858, 0.0175246168,
          0.0772719383, 0.555019557, 0.454934686, 0.454934686,
          0.173756316, 0.0917436555, 0.454934686, 0.454934686,
          0.341142267, 0.0509624071, 0.100050211, 0.486478567,
          0.486478567, 0.0452846028, 0.0301253814, 0.0759141296,
          0.486478567, 0.486478567, 0.194939882, 0.0421046056 ]
      - [ 0.422573149, 0.422573149, 0.0881690308, 0.163481161,
          0.422573149, 0.30745697, 0.393105805, 0.196107909, 0.371556669,
          0.573669791, 0.573669791, 0.0771970376, 0.0357561372,
          0.164131895, 0.449387759, 0.125876233, 0.0478616171,
          0.286033958, 0.470054597, 0.283048928, 0.140090898,
          0.0877518356, 0.444118768, 0.470054597, 0.151816413,
          0.0686932355, 0.470054597, 0.57048434, 0.57048434, 0.57048434,
          0.0805124715, 0.0612554252, 0.0375694558, 0.0436894782,
          0.0618857518, 0.0237021968, 0.399698645, 0.30342117,
          0.147884771, 0.0166980531, 0.288095176, 0.399698645,
          0.399698645, 0.399698645, 0.399698645, 0.409416258,
          0.265081614, 0.359916925, 0.194512397, 0.409416258,
          0.409416258, 0.153726533, 0.253274471, 0.409416258,
          0.0216722563, 0.461107314, 0.609321356, 0.609321356,
          0.0575570837, 0.0398144424, 0.177032739, 0.0373695716,
          0.0254238527, 0.235021546, 0.353621989, 0.345581383,
          0.350612044, 0.360535413, 0.360535413, 0.360535413,
          0.343013346, 0.257183671, 0.433826357, 0.263528943,
          0.145649061, 0.308206946, 0.433826357, 0.433826357,
          0.100932606, 0.216806814, 0.433826357, 0.0216722563,
          0.461107314, 0.609321356, 0.609321356, 0.0575570837,
          0.0398144424, 0.177032739, 0.0373695716, 0.0254238527,
          0.235021546, 0.353621989, 0.345581383, 0.350612044,
          0.360535413, 0.360535413, 0.360535413, 0.343013346,
          0.257183671, 0.433826357, 0.263528943, 0.145649061,
          0.308206946, 0.433826357, 0.433826357, 0.100932606,
          0.216806814, 0.433826357, 0.209533155, 0.107131958, 0.34481743,
          0.493656397, 0.357397288, 0.077909939, 0.31318754, 0.318601102,
          0.493656397, 0.024349587, 0.114382483, 0.23236765, 0.433648795,
          0.433648795, 0.185444549, 0.433648795, 0.433648795,
          0.376035243, 0.355867356, 0.323168486, 0.267620564,
          0.427502722, 0.427502722, 0.314944327, 0.0412178561,
          0.382948279, 0.282796562, 0.0724080652, 0.179955319,
          0.366740406, 0.368793696, 0.448043823, 0.209263653,
          0.448043823, 0.440187544, 0.219880596, 0.0130581735,
          0.374264896, 0.443361342, 0.443361342, 0.443361342,
          0.190310046, 0.443361342, 0.178242207, 0.0325771123,
          0.139735252, 0.446635485, 0.446635485, 0.446635485,
          0.446635485, 0.160326615, 0.371556818, 0.0946841612,
          0.0731808767, 0.470054597, 0.283048928, 0.140090898,
          0.0877518356, 0.444118768, 0.470054597, 0.151816413,
          0.0686932355, 0.470054597, 0.364943832, 0.321669191,
          0.364943832, 0.364943832, 0.364943832, 0.364943832,
          0.169428855, 0.255093545, 0.364943832, 0.0679787993,
          0.0618555769, 0.151879787, 0.490651697, 0.490651697,
          0.00750358775, 0.0239175931, 0.490651697, 0.490651697,
          0.409416258, 0.265081614, 0.359916925, 0.194512397,
          0.409416258, 0.409416258, 0.153726533, 0.253274471,
          0.409416258, 0.353186667, 0.353186667, 0.353186667,
          0.353186667, 0.353186667, 0.353186667, 0.208897904,
          0.282218426, 0.353186667, 0.233950838, 0.330395848,
          0.421096385, 0.338396579, 0.0538020395, 0.0721356124,
          0.421096385, 0.421096385, 0.421096385, 0.433826357,
          0.263528943, 0.145649061, 0.308206946, 0.433826357,
          0.433826357, 0.100932606, 0.216806814, 0.433826357,
          0.337650925, 0.337650925, 0.337650925, 0.337650925,
          0.337650925, 0.337186933, 0.291331977, 0.337650925,
          0.337650925, 0.273177832, 0.374727368, 0.380102128,
          0.331640333, 0.326924592, 0.455206931, 0.455206931,
          0.0677081496, 0.00725448178, 0.433826357, 0.263528943,
          0.145649061, 0.308206946, 0.433826357, 0.433826357,
          0.100932606, 0.216806814, 0.433826357, 0.337650925,
          0.337650925, 0.337650925, 0.337650925, 0.337650925,
          0.337186933, 0.291331977, 0.337650925, 0.337650925,
          0.273177832, 0.374727368, 0.380102128, 0.331640333,
          0.326924592, 0.455206931, 0.455206931, 0.0677081496,
          0.00725448178, 0.355867356, 0.323168486, 0.267620564,
          0.427502722, 0.427502722, 0.314944327, 0.0412178561,
          0.382948279, 0.282796562, 0.470705658, 0.470705658,
          0.187707156, 0.0955867842, 0.470705658, 0.470705658,
          0.187931374, 0.143077508, 0.0942498296, 0.534527242,
          0.534527242, 0.0761897266, 0.0403000675, 0.328070879,
          0.534527242, 0.109549455, 0.070513472, 0.0739666075,
          0.139735252, 0.446635485, 0.446635485, 0.446635485,
          0.446635485, 0.160326615, 0.371556818, 0.0946841612,
          0.0731808767, 0.555234134, 0.555234134, 0.555234134,
          0.130778909, 0.140955001, 0.132529333, 0.0797013715,
          0.0287060719, 0.0888186991, 0.49713856, 0.449819744,
          0.133748591, 0.0414397195, 0.0252612066, 0.0769709051,
          0.49713856, 0.49713856, 0.158392608 ]
      - [ 0.487860262, 0.487860262, 0.11943496, 0.135117039, 0.487860262,
          0.487860262, 0.0249427911, 0.00730322581, 0.0994994342,
          0.465317696, 0.432714462, 0.175360203, 0.1463864, 0.269016415,
          0.465317696, 0.465317696, 0.106144592, 0.150771841,
          0.391093403, 0.391093403, 0.391093403, 0.391093403,
          0.391093403, 0.270521879, 0.225280061, 0.142749876,
          0.294977993, 0.433658183, 0.0932868645, 0.0260659903,
          0.106068604, 0.433658183, 0.433658183, 0.433658183,
          0.186382771, 0.433658183, 0.486621588, 0.198537841,
          0.122313403, 0.137016833, 0.372022241, 0.490770906,
          0.490770906, 0.120811492, 0.224584326, 0.296070397,
          0.615293443, 0.615293443, 0.0811541602, 0.179222316,
          0.171669796, 0.233026311, 0.122095212, 0.107894734,
          0.0758729801, 0.283229798, 0.42707178, 0.42707178, 0.320104659,
          0.42707178, 0.42707178, 0.264502853, 0.0881366432, 0.383180648,
          0.383180648, 0.383180648, 0.158181295, 0.222958267,
          0.383180648, 0.383180648, 0.201185971, 0.383180648,
          0.251525491, 0.526269734, 0.526269734, 0.0623949729,
          0.0102680996, 0.0403143167, 0.257995695, 0.168564513,
          0.526269734, 0.0758729801, 0.283229798, 0.42707178, 0.42707178,
          0.320104659, 0.42707178, 0.42707178, 0.264502853, 0.0881366432,
          0.383180648, 0.383180648, 0.383180648, 0.158181295,
          0.222958267, 0.383180648, 0.383180648, 0.201185971,
          0.383180648, 0.251525491, 0.526269734, 0.526269734,
          0.0623949729, 0.0102680996, 0.0403143167, 0.257995695,
          0.168564513, 0.526269734, 0.0829039216, 0.439745992,
          0.439745992, 0.174930781, 0.100390941, 0.0512180924,
          0.439745992, 0.439745992, 0.414639264, 0.211008146,
          0.440585107, 0.440585107, 0.440585107, 0.10825938,
          0.0299297404, 0.181787953, 0.359097332, 0.440585107,
          0.418455094, 0.431792736, 0.431792736, 0.431792736,
          0.106703669, 0.0448795296, 0.103616104, 0.225091204,
          0.431792736, 0.338748664, 0.338748664, 0.338748664,
          0.338748664, 0.338748664, 0.280374855, 0.338748664,
          0.338748664, 0.338748664, 0.229023665, 0.0783163831,
          0.335646272, 0.471427649, 0.331965387, 0.156058416,
          0.150865018, 0.471427649, 0.471427649, 0.488502592,
          0.0583010092, 0.2827923, 0.513428867, 0.270893097, 0.243270919,
          0.0346933231, 0.109001026, 0.513428867, 0.391093403,
          0.391093403, 0.391093403, 0.391093403, 0.391093403,
          0.270521879, 0.225280061, 0.142749876, 0.294977993,
          0.336340457, 0.136263475, 0.1352579, 0.308010906, 0.391219229,
          0.372858912, 0.391219229, 0.391219229, 0.391219229,
          0.297632843, 0.393268287, 0.393268287, 0.393268287,
          0.393268287, 0.188737914, 0.188229218, 0.333428353,
          0.326526225, 0.296070397, 0.615293443, 0.615293443,
          0.0811541602, 0.179222316, 0.171669796, 0.233026311,
          0.122095212, 0.107894734, 0.099752292, 0.234583348,
          0.515800416, 0.0562609732, 0.108300455, 0.117092557,
          0.553528428, 0.553528428, 0.148492739, 0.0998809189,
          0.107505366, 0.331489295, 0.446654379, 0.446654379,
          0.160575598, 0.446654379, 0.446654379, 0.200834915,
          0.251525491, 0.526269734, 0.526269734, 0.0623949729,
          0.0102680996, 0.0403143167, 0.257995695, 0.168564513,
          0.526269734, 0.419630677, 0.357811511, 0.381593853,
          0.00990681071, 0., 0.0280762669, 0.508142292, 0.508142292,
          0.16699864, 0.456918806, 0.279474884, 0.125463039, 0.231498107,
          0.0857044458, 0.0745185241, 0.456918806, 0.456918806,
          0.456918806, 0.251525491, 0.526269734, 0.526269734,
          0.0623949729, 0.0102680996, 0.0403143167, 0.257995695,
          0.168564513, 0.526269734, 0.419630677, 0.357811511,
          0.381593853, 0.00990681071, 0., 0.0280762669, 0.508142292,
          0.508142292, 0.16699864, 0.456918806, 0.279474884, 0.125463039,
          0.231498107, 0.0857044458, 0.0745185241, 0.456918806,
          0.456918806, 0.456918806, 0.418455094, 0.431792736,
          0.431792736, 0.431792736, 0.106703669, 0.0448795296,
          0.103616104, 0.225091204, 0.431792736, 0.422651678,
          0.354307353, 0.114603966, 0.0678036511, 0.14379856,
          0.422651678, 0.422651678, 0.422651678, 0.34248659, 0.446058482,
          0.421314806, 0.0414253436, 0.0075054029, 0.0655345991,
          0.446058482, 0.446058482, 0.446058482, 0.126879856,
          0.488502592, 0.0583010092, 0.2827923, 0.513428867, 0.270893097,
          0.243270919, 0.0346933231, 0.109001026, 0.513428867,
          0.513353586, 0.0519397557, 0.0232096426, 0.299611092,
          0.351129621, 0.513353586, 0.337933928, 0.166699633, 0.33094725,
          0.453921467, 0.453921467, 0.453921467, 0.0130807059,
          0.116268463, 0.453921467, 0.355159611, 0.0811756104,
          0.157701641 ]
      - [ 0.427251577, 0.427251577, 0.402752489, 0., 0.0715196729,
          0.163305283, 0.427251577, 0.389291883, 0.320248455,
          0.450512558, 0.450512558, 0.450512558, 0.0214932915,
          0.116615787, 0.450512558, 0.320457697, 0.0701888427,
          0.248943776, 0.154464737, 0.218782127, 0.147115663,
          0.131235689, 0.529098213, 0.529098213, 0.529098213,
          0.177834705, 0.112539791, 0.410531342, 0.410531342,
          0.410531342, 6.16024772e-05, 0.00501375925, 0.410531342,
          0.410531342, 0.360678256, 0.152003601, 0.155524537,
          0.553252816, 0.200608477, 0.0356367417, 0.0982285887,
          0.553252816, 0.553252816, 0.0143722454, 0.0255355369,
          0.35942027, 0.330422699, 0.103110671, 0.178769797, 0.36169222,
          0.399797112, 0.399797112, 0.369950593, 0.357342064,
          0.168686271, 0.405110776, 0.474386394, 0.0103008896,
          0.00362422597, 0.536837995, 0.536837995, 0.0150093036,
          0.0170926154, 0.429739505, 0.463035077, 0.334688723,
          0.0492058881, 0.065973416, 0.463035077, 0.463035077,
          0.129629955, 0.178606257, 0.38460356, 0.38460356, 0.352566093,
          0.170002833, 0.284237951, 0.364908844, 0.193195745, 0.38460356,
          0.38460356, 0.168686271, 0.405110776, 0.474386394,
          0.0103008896, 0.00362422597, 0.536837995, 0.536837995,
          0.0150093036, 0.0170926154, 0.429739505, 0.463035077,
          0.334688723, 0.0492058881, 0.065973416, 0.463035077,
          0.463035077, 0.129629955, 0.178606257, 0.38460356, 0.38460356,
          0.352566093, 0.170002833, 0.284237951, 0.364908844,
          0.193195745, 0.38460356, 0.38460356, 0.0696984082, 0.447276622,
          0.511069179, 0.0394795388, 0.0616686381, 0.511069179,
          0.511069179, 0.0197077524, 0.0256219655, 0.197416484,
          0.49832353, 0.49832353, 0.229053274, 0.0866755247, 0.399881124,
          0.474086881, 0.107414439, 0.0567275025, 0.312288851,
          0.365911335, 0.450990975, 0.286134511, 0.143803537,
          0.201645479, 0.450990975, 0.411070079, 0.212372556,
          0.239338458, 0.464758635, 0.464758635, 0.0990923494,
          0.248230413, 0.464758635, 0.464758635, 0., 0.0513310954,
          0.467977256, 0.467977256, 0.467977256, 0.125869021,
          0.0492714979, 0.0447479337, 0.208839074, 0.235431701,
          0.467977256, 0.547922313, 0.547922313, 0.215780765,
          0.134252205, 0.0769093111, 0.0387012102, 0.119728871,
          0.086827293, 0.547922313, 0.154464737, 0.218782127,
          0.147115663, 0.131235689, 0.529098213, 0.529098213,
          0.529098213, 0.177834705, 0.112539791, 0.102312483,
          0.427166939, 0.209922522, 0.427166939, 0.427166939,
          0.427166939, 0.342241108, 0.235464409, 0.196821347,
          0.0771051794, 0.305767179, 0.483986944, 0.590034068,
          0.493738264, 0.0554227829, 0.0850741789, 0.213797927,
          0.111757793, 0.35942027, 0.330422699, 0.103110671, 0.178769797,
          0.36169222, 0.399797112, 0.399797112, 0.369950593, 0.357342064,
          0.343414873, 0.373938948, 0.277050525, 0.254172087,
          0.373938948, 0.373938948, 0.373938948, 0.246711299,
          0.341733992, 0.370660543, 0.370660543, 0.329612672,
          0.370660543, 0.333224803, 0.323899388, 0.370660543,
          0.267120987, 0.225370795, 0.38460356, 0.38460356, 0.352566093,
          0.170002833, 0.284237951, 0.364908844, 0.193195745, 0.38460356,
          0.38460356, 0.376568824, 0.376568824, 0.376568824, 0.229192466,
          0.236439735, 0.192302898, 0.376568824, 0.376568824,
          0.376568824, 0.4060193, 0.4060193, 0.4060193, 0.17237325,
          0.0515266843, 0.0560243167, 0.4060193, 0.4060193, 0.369024724,
          0.38460356, 0.38460356, 0.352566093, 0.170002833, 0.284237951,
          0.364908844, 0.193195745, 0.38460356, 0.38460356, 0.376568824,
          0.376568824, 0.376568824, 0.229192466, 0.236439735,
          0.192302898, 0.376568824, 0.376568824, 0.376568824, 0.4060193,
          0.4060193, 0.4060193, 0.17237325, 0.0515266843, 0.0560243167,
          0.4060193, 0.4060193, 0.369024724, 0.312288851, 0.365911335,
          0.450990975, 0.286134511, 0.143803537, 0.201645479,
          0.450990975, 0.411070079, 0.212372556, 0.0704939961,
          0.253332645, 0.498591006, 0.186824352, 0.168001369,
          0.137271494, 0.498591006, 0.498591006, 0.313246518, 0.11206039,
          0.282855749, 0.46035251, 0.46035251, 0.0987548828, 0.248012543,
          0.46035251, 0.422957778, 0.130028784, 0.547922313, 0.547922313,
          0.215780765, 0.134252205, 0.0769093111, 0.0387012102,
          0.119728871, 0.086827293, 0.547922313, 0.626225173,
          0.192003012, 0.233698115, 0.0531453677, 0.0950612128,
          0.038184084, 0.19301714, 0.259571135, 0.626225173, 0.499231786,
          0.499231786, 0.169455931, 0.0801626816, 0.0618453734,
          0.0836981609, 0.254889011, 0.369292319, 0.499231786 ]
      - [ 0.464191645, 0.464191645, 0.462381601, 0.0649836212,
          0.193006814, 0.464191645, 0.297173351, 0.0581228249,
          0.044502113, 0.408080161, 0.408080161, 0.373097241,
          0.0344313346, 0.24269478, 0.408080161, 0.408080161,
          0.325358808, 0.157033592, 0.365461946, 0.365461946,
          0.365461946, 0.180263102, 0.170049995, 0.365461946,
          0.365461946, 0.365461946, 0.365461946, 0.208394051,
          0.417538077, 0.417538077, 0.417538077, 0.170724481,
          0.417538077, 0.417538077, 0.195290565, 0.115868151, 0.242045,
          0.383143872, 0.383143872, 0.383143872, 0.16162391, 0.175125644,
          0.383143872, 0.383143872, 0.383143872, 0.353149623,
          0.353149623, 0.353149623, 0.220220223, 0.353149623,
          0.273810476, 0.353149623, 0.353149623, 0.353149623,
          0.106991947, 0.244435996, 0.466144383, 0.466144383,
          0.173762307, 0.12033096, 0.466144383, 0.466144383, 0.101551332,
          0.464354813, 0.405097663, 0.276171356, 0.464354813,
          0.464354813, 0.124866568, 0.0264176298, 0.0534172431,
          0.298275143, 0.443967342, 0.0754344687, 0.03283168,
          0.443967342, 0.443967342, 0.443967342, 0.00998922903,
          0.0562325232, 0.443967342, 0.106991947, 0.244435996,
          0.466144383, 0.466144383, 0.173762307, 0.12033096, 0.466144383,
          0.466144383, 0.101551332, 0.464354813, 0.405097663,
          0.276171356, 0.464354813, 0.464354813, 0.124866568,
          0.0264176298, 0.0534172431, 0.298275143, 0.443967342,
          0.0754344687, 0.03283168, 0.443967342, 0.443967342,
          0.443967342, 0.00998922903, 0.0562325232, 0.443967342,
          0.208989039, 0.403428137, 0.403428137, 0.276541054,
          0.245748416, 0.0406782106, 0.403428137, 0.403428137,
          0.403428137, 0.427053839, 0.427053839, 0.427053839,
          0.0239058044, 0.208001226, 0.427053839, 0.423483282,
          0.187117085, 0.0897057727, 0.486461073, 0.0916630253,
          0.00481360406, 0.186949402, 0.486461073, 0.486461073,
          0.12692982, 0.0532682128, 0.472106069, 0.0467521399,
          0.166770324, 0.463732928, 0.463732928, 0.296680838,
          0.0360074863, 0.125940233, 0.463732928, 0.463732928,
          0.0660619289, 0.252205998, 0.433113337, 0.433113337,
          0.131111935, 0.157855719, 0.367755473, 0.433113337,
          0.433113337, 0.453627676, 0.0167155974, 0.0201706197,
          0.366051584, 0.453627676, 0.164728343, 0.102669932,
          0.453627676, 0.453627676, 0.365461946, 0.365461946,
          0.365461946, 0.180263102, 0.170049995, 0.365461946,
          0.365461946, 0.365461946, 0.365461946, 0.270737112,
          0.407848269, 0.407848269, 0.407848269, 0.214000687,
          0.00184923538, 0.212429568, 0.407848269, 0.407848269,
          0.0331711061, 0.0334460959, 0.306433231, 0.467532486,
          0.152618617, 0.0396327488, 0.467532486, 0.467532486,
          0.467532486, 0.353149623, 0.353149623, 0.353149623,
          0.220220223, 0.353149623, 0.273810476, 0.353149623,
          0.353149623, 0.353149623, 0.344462126, 0.344462126,
          0.344462126, 0.344462126, 0.222154826, 0.341506571,
          0.344462126, 0.344462126, 0.344462126, 0.116337806,
          0.305709004, 0.381150454, 0.228504464, 0.039476715, 0.47784549,
          0.47784549, 0.47784549, 0.0646327063, 0.443967342,
          0.0754344687, 0.03283168, 0.443967342, 0.443967342,
          0.443967342, 0.00998922903, 0.0562325232, 0.443967342,
          0.436769247, 0.0858246461, 0.0162654631, 0.398976952,
          0.436769247, 0.436769247, 0.107197382, 0.232944876,
          0.436769247, 0.140410081, 0.125565752, 0.03225841,
          0.00652061636, 0.357833177, 0.455751657, 0.455751657,
          0.455751657, 0.455751657, 0.443967342, 0.0754344687,
          0.03283168, 0.443967342, 0.443967342, 0.443967342,
          0.00998922903, 0.0562325232, 0.443967342, 0.436769247,
          0.0858246461, 0.0162654631, 0.398976952, 0.436769247,
          0.436769247, 0.107197382, 0.232944876, 0.436769247,
          0.140410081, 0.125565752, 0.03225841, 0.00652061636,
          0.357833177, 0.455751657, 0.455751657, 0.455751657,
          0.455751657, 0.486461073, 0.0916630253, 0.00481360406,
          0.186949402, 0.486461073, 0.486461073, 0.12692982,
          0.0532682128, 0.472106069, 0.169385552, 0.0944912583,
          0.314061016, 0.461695582, 0.461695582, 0.0375414342,
          0.071228385, 0.461695582, 0.461695582, 0.0264159217,
          0.0860495418, 0.292095512, 0.244158566, 0.0311899912,
          0.0545876697, 0.528436184, 0.528436184, 0.528436184,
          0.453627676, 0.0167155974, 0.0201706197, 0.366051584,
          0.453627676, 0.164728343, 0.102669932, 0.453627676,
          0.453627676, 0.380288839, 0.380288839, 0.380288839,
          0.265877545, 0.380288839, 0.380288839, 0.230806604,
          0.0833419561, 0.37708649, 0.384195626, 0.432848364,
          0.299589515, 0.0458268709, 0.0628251806, 0.432848364,
          0.432848364, 0.432848364, 0.0532744676 ]
      - [ 0.212181926, 0.101576492, 0.259321332, 0.317768425,
          0.363555968, 0.477822155, 0.477822155, 0.187068075,
          0.384536922, 0.0385793708, 0.096432142, 0.0705334544,
          0.0667174384, 0.683567762, 0.683567762, 0.190754205,
          0.0361303724, 0.0272007547, 0.273619056, 0.443072766,
          0.443072766, 0.278359622, 0.443072766, 0.443072766,
          0.0540339462, 0.0805297345, 0.220372528, 0.070933789,
          0.0636254922, 0.232128173, 0.180351049, 0.220349565,
          0.630249143, 0.630249143, 0.156649157, 0.175205395,
          0.324567616, 0.419402808, 0.394191116, 0.16819866, 0.419402808,
          0.419402808, 0.380348355, 0.0101217348, 0.18527095,
          0.0315393843, 0.688908517, 0.688908517, 0.0260124467,
          0.0332711302, 0.0726029575, 0.177567452, 0.0565997586,
          0.0339065529, 0.0599914305, 0.0587359741, 0.085405007,
          0.0460640788, 0.0427853912, 0.301237822, 0.653466582,
          0.653466582, 0.174354076, 0.390529573, 0.390529573,
          0.390529573, 0.390529573, 0.20325394, 0.133256897, 0.25984925,
          0.327017844, 0.390529573, 0.231293142, 0.54325223, 0.54325223,
          0.0487640835, 0.0181927644, 0.0139531652, 0.199568197,
          0.113922782, 0.54325223, 0.0599914305, 0.0587359741,
          0.085405007, 0.0460640788, 0.0427853912, 0.301237822,
          0.653466582, 0.653466582, 0.174354076, 0.390529573,
          0.390529573, 0.390529573, 0.390529573, 0.20325394, 0.133256897,
          0.25984925, 0.327017844, 0.390529573, 0.231293142, 0.54325223,
          0.54325223, 0.0487640835, 0.0181927644, 0.0139531652,
          0.199568197, 0.113922782, 0.54325223, 0.0199387763,
          0.0149266375, 0.0289728437, 0.0794601664, 0.0554670207,
          0.040527232, 0.685028672, 0.685028672, 0.205280781,
          0.114007629, 0.451282322, 0.451282322, 0.451282322,
          0.0403439365, 0.0419423729, 0.224869773, 0.445044756,
          0.345701218, 0.426372439, 0.426372439, 0.426372439,
          0.426372439, 0.0947866514, 0.0759381503, 0.0909977555,
          0.252471626, 0.426372439, 0.00271131238, 0.000503379968,
          0.00184662081, 0.00716304546, 0.00336460094, 0.052618023,
          0.53310436, 0.594567358, 0.594567358, 0.127512202,
          0.0821740329, 0.282981932, 0.539154947, 0.112974249,
          0.018602984, 0.0796985775, 0.539154947, 0.539154947,
          0.392507702, 0.0200200342, 0.288200825, 0.532064438,
          0.417180896, 0.104317494, 0.0158954114, 0.0761817619,
          0.532064438, 0.273619056, 0.443072766, 0.443072766,
          0.278359622, 0.443072766, 0.443072766, 0.0540339462,
          0.0805297345, 0.220372528, 0.187122002, 0.258974701,
          0.157252923, 0.367993861, 0.421574593, 0.150524139,
          0.421574593, 0.421574593, 0.421574593, 0.0173487477,
          0.0102648223, 0.0680754185, 0.561556458, 0.561556458,
          0.0977528691, 0.441196471, 0.388270378, 0.0608000234,
          0.0315393843, 0.688908517, 0.688908517, 0.0260124467,
          0.0332711302, 0.0726029575, 0.177567452, 0.0565997586,
          0.0339065529, 0.035445042, 0.198812276, 0.505232751,
          0.0101114744, 0.0229986403, 0.0360741317, 0.589157522,
          0.589157522, 0.0439163372, 0.391945243, 0.327780515,
          0.119684547, 0.391945243, 0.297573835, 0.132907584,
          0.391945243, 0.391945243, 0.391945243, 0.231293142, 0.54325223,
          0.54325223, 0.0487640835, 0.0181927644, 0.0139531652,
          0.199568197, 0.113922782, 0.54325223, 0.178649202, 0.458740056,
          0.467393726, 0., 0.000717019604, 0.00540513359, 0.511676252,
          0.511676252, 0.102079593, 0.427127451, 0.427127451,
          0.063577123, 0.206860811, 0.165435895, 0.0966502279,
          0.427127451, 0.427127451, 0.427127451, 0.231293142, 0.54325223,
          0.54325223, 0.0487640835, 0.0181927644, 0.0139531652,
          0.199568197, 0.113922782, 0.54325223, 0.178649202, 0.458740056,
          0.467393726, 0., 0.000717019604, 0.00540513359, 0.511676252,
          0.511676252, 0.102079593, 0.427127451, 0.427127451,
          0.063577123, 0.206860811, 0.165435895, 0.0966502279,
          0.427127451, 0.427127451, 0.427127451, 0.426372439,
          0.426372439, 0.426372439, 0.426372439, 0.0947866514,
          0.0759381503, 0.0909977555, 0.252471626, 0.426372439,
          0.399903178, 0.399903178, 0.185501277, 0.0400667675,
          0.021292368, 0.399903178, 0.399903178, 0.399903178,
          0.399903178, 0.401115417, 0.30225113, 0.0549409464,
          0.0726722106, 0.0909554288, 0.476413488, 0.476413488,
          0.476413488, 0.213330805, 0.392507702, 0.0200200342,
          0.288200825, 0.532064438, 0.417180896, 0.104317494,
          0.0158954114, 0.0761817619, 0.532064438, 0.516161621,
          0.181170747, 0.0550472476, 0.363935888, 0.413561493,
          0.516161621, 0.23508586, 0.0252155717, 0.258384943,
          0.501695573, 0.501695573, 0.0551348329, 0.0205278341,
          0.0559140332, 0.501695573, 0.441901177, 0.0988530666,
          0.168101221 ]
      - [ 0.234596491, 0.11104434, 0.135895863, 0.0484861024,
          0.470165163, 0.53729856, 0.53729856, 0.266670644, 0.192096904,
          0.192979857, 0.457423925, 0.457423925, 0.113622963,
          0.457423925, 0.457423925, 0.19264704, 0.183973446, 0.193323448,
          0.401260465, 0.401260465, 0.401260465, 0.116195992,
          0.0982127264, 0.082367979, 0.401260465, 0.401260465,
          0.401260465, 0.0729989335, 0.112409368, 0.196043834,
          0.0498642363, 0.124321237, 0.666581571, 0.666581571,
          0.167668715, 0.0472282395, 0.0121415453, 0.685110211,
          0.685110211, 0.00668045785, 0.0315329134, 0.131637439,
          0.137586445, 0.129439443, 0.0144709228, 0.0019432446,
          0.531514466, 0.531514466, 0.0200434234, 0.0165401641,
          0.0235907957, 0.531514466, 0.381411642, 0.0214169659,
          0.158419207, 0.198751852, 0.259353191, 0.139255404,
          0.0643847659, 0.524728715, 0.524728715, 0.524728715,
          0.115491875, 0.00714198733, 0.686379731, 0.686379731,
          0.0248814486, 0.0151682524, 0.0197817013, 0.129028633,
          0.173115149, 0.054817576, 0.0094147725, 0.541404545,
          0.541404545, 0.00220727385, 0.0012748189, 0.0204943586,
          0.541404545, 0.338703811, 0.00115409633, 0.158419207,
          0.198751852, 0.259353191, 0.139255404, 0.0643847659,
          0.524728715, 0.524728715, 0.524728715, 0.115491875,
          0.00714198733, 0.686379731, 0.686379731, 0.0248814486,
          0.0151682524, 0.0197817013, 0.129028633, 0.173115149,
          0.054817576, 0.0094147725, 0.541404545, 0.541404545,
          0.00220727385, 0.0012748189, 0.0204943586, 0.541404545,
          0.338703811, 0.00115409633, 0.114532441, 0.104037978,
          0.363645792, 0.0937165767, 0.0842795372, 0.155472308,
          0.424867719, 0.648378074, 0.443150789, 0.00887827389,
          0.607707202, 0.70719862, 0.0277534313, 0.0494433716,
          0.100721747, 0.319791228, 0.0872401223, 0.0136640808,
          0.00177694031, 0.524846256, 0.615022779, 0.0129304733,
          0.00136175216, 0.0143461442, 0.501578748, 0.29695192,
          0.00171743624, 0.0221130177, 0.0560150519, 0.16428858,
          0.141819075, 0.214607477, 0.432081372, 0.487050533,
          0.487050533, 0.487050533, 0.161889538, 0.466535807,
          0.466535807, 0.24707678, 0.172288954, 0.030038327,
          0.0829255506, 0.466535807, 0.466535807, 0.0956737176,
          0.511499047, 0.517892241, 0.246748492, 0.517892241, 0.1517203,
          0.284377337, 0.121409148, 0.0900208801, 0.401260465,
          0.401260465, 0.401260465, 0.116195992, 0.0982127264,
          0.082367979, 0.401260465, 0.401260465, 0.401260465,
          0.0565146059, 0.0117866201, 0.0857073516, 0.427111953,
          0.490213692, 0.235489428, 0.490213692, 0.490213692,
          0.160053417, 0.0653938949, 0.066249989, 0.414589256,
          0.797180355, 0.399513721, 0.0291915201, 0.0746646747,
          0.0575669557, 0.0815213397, 0.0019432446, 0.531514466,
          0.531514466, 0.0200434234, 0.0165401641, 0.0235907957,
          0.531514466, 0.381411642, 0.0214169659, 0.000863123161,
          0.0324427076, 0.214319751, 0.0154746138, 0.0200968143,
          0.0128904544, 0.687322557, 0.687322557, 0.0227623917,
          0.0203521717, 0.172270998, 0.580007792, 0.580007792,
          0.235593393, 0.0786795467, 0.382724255, 0.237797409,
          0.16302906, 0.0094147725, 0.541404545, 0.541404545,
          0.00220727385, 0.0012748189, 0.0204943586, 0.541404545,
          0.338703811, 0.00115409633, 0.00627955887, 0.0405770838,
          0.111475788, 0.00649358192, 0.0167898498, 0.0203234162,
          0.699340463, 0.699340463, 0.00385836186, 0.0381071717,
